tree
version=v4
num_class=1
num_tree_per_iteration=1
label_index=0
max_feature_idx=23
objective=regression
feature_names=day_of_year month_sin month_cos temp_mean temp_max temp_min precip_mm et0_mm wind_kmh population irrigation_area_ha catchment_area_km2 irrigation_season_flag fill_ratio inflow_m3 evap_m3 demand_lag_1d demand_lag_7d demand_lag_14d demand_lag_30d fill_lag_1d fill_lag_7d fill_lag_14d fill_lag_30d
feature_infos=[1:366] [-1:1] [-1:1] [6:32.799999999999997] [9.5:40.200000000000003] [-3.2000000000000002:28] [0:35.100000000000001] [0.5:6.9900000000000002] [0:22.800000000000001] [80000:2500000] [200:5000] [200:9800] [0:1] [0.01:1] [0:83479003] [0:66892] [9721:697677] [10013:697677] [10016:697677] [10013:697677] [0.01:1] [0.01:1] [0.01:1] [0.01:1]
tree_sizes=2744 2784 2783 2787 2797 2772 2774 2777 2752 2773 2797 2769 2792 2774 2784 2773 2791 2795 2781 2782 2788 2787 2764 2783 2782 2763 2771 2784 2788 2779 2737 2779 2783 2766 2768 2788 2791 2772 2761 2781 2795 2709 2783 2780 2678 2767 2766 2736 2750 2772 2437 2434 2438 2764 2444 2174 2188 1924 2105 2002 2778 2670 2780 2764 2781 2026 2356 2022 2317 1862 2761 2613 2416 2270 2189 2106 1584 1585 2198 1585 2099 1939 1842 1336 1942 2203 1858 1997 1504 1595 2404 2670 2331 2756 2600 1425 1754 1911 1504 1510

Tree=0
num_leaves=31
num_cat=0
split_feature=17 15 2 10 0 15 2 15 10 7 0 0 18 10 15 0 0 0 10 15 10 7 2 10 0 19 15 0 10 0
split_gain=7.21843e+11 9.33741e+10 5.3754e+10 5.77809e+10 4.29123e+10 1.27992e+10 9.49893e+09 6.85517e+09 4.99457e+09 4.66311e+09 3.46783e+09 2.26747e+09 2.05636e+09 1.35045e+09 1.19052e+09 9.0482e+08 8.93807e+08 5.91411e+08 5.46621e+08 4.57519e+08 3.21347e+08 3.27233e+08 2.75684e+08 2.17595e+08 2.14949e+08 1.84969e+08 1.79236e+08 3.59983e+07 2.60323e+07 1.97901e+07
threshold=522267.50000000006 332.50000000000006 1.0000000180025095e-35 1150.0000000000002 219.50000000000003 12935.000000000002 1.0000000180025095e-35 1992.0000000000002 1150.0000000000002 4.6500000000000012 242.50000000000003 134.50000000000003 93554.500000000015 500.00000000000006 10941.000000000002 244.50000000000003 185.50000000000003 235.50000000000003 500.00000000000006 109.50000000000001 1150.0000000000002 3.8600000000000008 -0.68301270189221952 1150.0000000000002 262.50000000000006 584619.50000000012 27969.000000000004 84.500000000000014 500.00000000000006 274.50000000000006
decision_type=2 2 2 2 2 2 2 2 2 2 2 2 2 2 2 2 2 2 2 2 2 2 2 2 2 2 2 2 2 2
left_child=1 6 3 12 9 7 8 -5 13 -2 -6 -11 18 19 20 -10 25 -15 -3 -1 27 -22 -14 28 -17 -13 -16 -4 -8 -25
right_child=4 2 14 5 10 -7 23 -9 15 11 -12 16 22 17 26 24 -18 -19 -20 -21 21 -23 -24 29 -26 -27 -28 -29 -30 -31
leaf_value=9091.9840045991059 12317.410006052196 9290.1207204675302 9022.7811359258249 10044.317360114512 11525.984661794488 11506.438722040883 8988.6257947581307 10471.904132260959 9763.6706356025807 12679.425081238325 10662.108180048694 13156.415426374959 9623.067004969349 9387.2612769746411 9299.3003585802635 9542.3296102368276 12900.644035428666 9209.2988493463745 9433.2125646570348 9180.2608570988814 9135.4878994364499 9345.8287696483039 9475.9904632638845 9057.9846612411457 9316.103421958629 13342.205836958534 9476.9212733676341 9095.4201930942945 9004.7133695779612 9032.2433807671641
leaf_weight=265 29 135 66 242 26 20 666 153 39 33 21 21 123 90 49 21 22 97 132 329 245 20 43 112 21 37 20 23 404 224
leaf_count=265 29 135 66 242 26 20 666 153 39 33 21 21 123 90 49 21 22 97 132 329 245 20 43 112 21 37 20 23 404 224
internal_value=9438.89 9278.11 9621.18 9850.84 12449.6 10272.4 9085.84 10209.9 9216.53 12883 11140 13028.2 9446.78 9177.77 9160.79 9590.25 13172 9294.95 9360.86 9140.88 9123.76 9151.36 9584.97 9005.72 9429.22 13274.9 9350.78 9041.55 8994.7 9040.82
internal_weight=3728 3539 1271 848 189 415 2268 395 862 142 47 113 433 781 423 81 80 187 267 594 354 265 166 1406 42 58 69 89 1070 336
internal_count=3728 3539 1271 848 189 415 2268 395 862 142 47 113 433 781 423 81 80 187 267 594 354 265 166 1406 42 58 69 89 1070 336
is_linear=0
shrinkage=1


Tree=1
num_leaves=31
num_cat=0
split_feature=16 15 12 10 0 12 16 2 10 0 0 0 19 10 0 15 20 0 10 0 15 15 2 0 10 16 0 10 7 10
split_gain=6.72116e+11 7.6284e+10 4.69254e+10 4.79299e+10 4.37952e+10 9.14403e+09 8.53911e+09 6.56101e+09 5.04855e+09 4.09182e+09 3.79596e+09 2.52669e+09 1.85783e+09 1.33413e+09 1.13705e+09 8.97124e+08 7.66563e+08 5.66731e+08 5.14982e+08 4.03461e+08 3.44189e+08 3.33317e+08 2.8029e+08 2.32537e+08 2.05707e+08 1.25911e+08 7.412e+07 4.94695e+07 3.87378e+07 2.39382e+07
threshold=492526.50000000006 332.50000000000006 1.0000000180025095e-35 1150.0000000000002 219.50000000000003 1.0000000180025095e-35 89105.000000000015 -0.68301270189221952 1150.0000000000002 243.50000000000003 194.50000000000003 225.50000000000003 80859.000000000015 500.00000000000006 173.50000000000003 10941.000000000002 0.98325000000000007 231.50000000000003 500.00000000000006 233.50000000000003 109.50000000000001 1550.0000000000002 -0.68301270189221952 168.50000000000003 1150.0000000000002 40594.500000000007 54.500000000000007 1150.0000000000002 2.1650000000000005 500.00000000000006
decision_type=2 2 2 2 2 2 2 2 2 2 2 2 2 2 2 2 2 2 2 2 2 2 2 2 2 2 2 2 2 2
left_child=1 5 15 12 7 24 11 10 13 -6 16 -5 18 20 -8 21 23 -10 -4 -15 -7 27 -14 -2 29 -19 -23 -3 -17 -1
right_child=4 2 3 6 9 8 14 -9 17 -11 -12 -13 22 19 -16 28 -18 25 -20 -21 -22 26 -24 -25 -26 -27 -28 -29 -30 -31
leaf_value=-436.29897764307509 3750.1513537176725 -402.71970273672815 -150.88425576030346 675.62520474520602 1949.3995723329745 -331.24381584988174 1251.0422016759073 2623.8203811233107 407.46646606445313 1076.5160000000001 2857.8053185096155 296.72958544644445 167.41738555877191 -55.643091832385977 948.22554892263111 -177.72294820149739 3338.7689648437504 -3.4202596032619477 -12.743650542606007 -205.36709789234206 -253.70559881170234 -220.01857569494916 22.744921394016433 3551.5955533854171 -386.05195826480264 153.8455571637835 -295.07104509626117 -347.79355318045913 -99.063681869506837 -420.99741092134275
leaf_weight=676 29 83 138 220 29 251 62 37 20 25 26 55 123 89 62 24 30 20 132 91 333 43 46 30 342 35 140 81 45 411
leaf_count=676 29 83 138 220 29 251 62 37 20 25 26 55 123 89 62 24 30 20 132 91 333 43 46 30 342 35 140 81 45 411
internal_value=-7.5505 -169.916 143.027 358.528 2768.42 -342.945 755.169 3202.96 -211.92 1545.29 3389.29 599.846 -1.97172 -250.349 1099.63 -291.084 3544.55 179.54 -83.3488 -131.337 -287.031 -323.826 128.039 3649.19 -419.873 96.658 -277.436 -375.592 -126.423 -430.513
internal_weight=3728 3522 1254 838 206 2268 399 152 839 54 115 275 439 764 124 416 89 75 270 180 584 347 169 59 1429 55 183 164 69 1087
internal_count=3728 3522 1254 838 206 2268 399 152 839 54 115 275 439 764 124 416 89 75 270 180 584 347 169 59 1429 55 183 164 69 1087
is_linear=0
shrinkage=0.05


Tree=2
num_leaves=31
num_cat=0
split_feature=17 15 12 10 7 15 12 15 7 10 2 18 2 10 15 7 15 23 7 10 2 15 15 7 10 18 10 2 13 10
split_gain=5.88675e+11 7.60118e+10 4.63653e+10 4.85566e+10 3.40997e+10 1.11025e+10 8.80259e+09 6.27697e+09 5.6563e+09 5.00186e+09 2.04082e+09 1.73437e+09 1.69557e+09 1.33112e+09 1.06669e+09 1.02716e+09 8.15269e+08 6.18501e+08 5.22087e+08 4.53148e+08 3.7504e+08 3.18773e+08 2.84367e+08 1.95824e+08 1.88328e+08 8.73288e+07 4.24715e+07 3.37034e+07 2.67463e+07 2.21684e+07
threshold=522267.50000000006 346.50000000000006 1.0000000180025095e-35 1150.0000000000002 4.3500000000000005 2074.0000000000005 1.0000000180025095e-35 14197.500000000002 2.5050000000000003 1150.0000000000002 -0.68301270189221952 93554.500000000015 -0.9330127018922193 500.00000000000006 46655.000000000007 3.6150000000000007 10941.000000000002 0.99935000000000007 2.9700000000000002 500.00000000000006 -0.24999999999999994 109.50000000000001 1550.0000000000002 5.0950000000000006 1150.0000000000002 45271.500000000007 1150.0000000000002 0.25000000000000017 0.90580000000000005 500.00000000000006
decision_type=2 2 2 2 2 2 2 2 2 2 2 2 2 2 2 2 2 2 2 2 2 2 2 2 2 2 2 2 2 2
left_child=1 6 16 11 8 10 24 -7 -2 13 -5 19 -6 21 -14 -10 22 -16 25 -4 -15 -8 26 -13 29 -11 -3 -18 -24 -1
right_child=4 2 3 5 12 7 9 -9 15 18 -12 23 14 20 17 -17 27 -19 -20 -21 -22 -23 28 -25 -26 -27 -28 -29 -30 -31
leaf_value=-414.4706173692532 1100.4203252883185 -382.21842760917468 -143.19993670428241 690.69995620969746 3470.8402292351975 965.03517140355598 -314.68163323269425 1909.9397802734377 1862.775301846591 17.485197824698229 403.19640293200155 54.566471034082873 2822.9011112607759 -66.197019449075057 3321.9364908854168 2351.6564639136905 -81.615946825812841 2985.431551846591 342.7633702431956 -11.625440037344385 -211.17625715228874 -240.20447086152578 -209.77596191406252 169.03565609773 -366.51546648550726 152.83928749778053 -330.04051419771639 -152.01747562184053 -271.02141009074887 -399.79386171639686
leaf_weight=677 21 78 135 126 38 145 251 20 22 26 121 58 29 120 36 21 34 22 31 127 71 336 20 105 345 22 78 34 164 415
leaf_count=677 21 78 135 126 38 145 251 20 22 26 121 58 29 120 36 21 34 22 31 127 71 336 20 105 345 22 78 34 164 415
internal_value=-7.17299 -152.371 162.174 375.208 2711.64 762 -323.081 1079.57 1773.04 -196.252 549.858 0.247475 3192.2 -234.744 3070.5 2101.53 -274.86 3194.3 182.82 -79.4215 -120.09 -272.051 -306.468 128.304 -398.719 79.5225 -356.129 -116.817 -264.364 -408.893
internal_weight=3728 3539 1245 837 189 412 2294 165 64 857 247 425 125 778 87 43 408 58 79 262 191 587 340 163 1437 48 156 68 184 1092
internal_count=3728 3539 1245 837 189 412 2294 165 64 857 247 425 125 778 87 43 408 58 79 262 191 587 340 163 1437 48 156 68 184 1092
is_linear=0
shrinkage=0.05


Tree=3
num_leaves=31
num_cat=0
split_feature=16 15 12 10 15 12 16 2 10 2 2 7 18 10 15 15 13 10 2 7 15 15 3 10 23 7 7 18 10 10
split_gain=5.47593e+11 6.21345e+10 3.82445e+10 3.90347e+10 3.59676e+10 7.4445e+09 7.16512e+09 5.83742e+09 4.10885e+09 3.16229e+09 2.05992e+09 1.85239e+09 1.54344e+09 1.08594e+09 7.85178e+08 7.29158e+08 4.71475e+08 4.1875e+08 4.00655e+08 3.17597e+08 2.80017e+08 2.2128e+08 2.17779e+08 1.6748e+08 1.59517e+08 1.47816e+08 9.27342e+07 2.35198e+07 2.21213e+07 1.94779e+07
threshold=492526.50000000006 332.50000000000006 1.0000000180025095e-35 1150.0000000000002 34143.000000000007 1.0000000180025095e-35 89105.000000000015 -0.68301270189221952 1150.0000000000002 -0.24999999999999994 -0.24999999999999994 5.1450000000000005 93554.500000000015 500.00000000000006 2338.5000000000005 4921.5000000000009 0.98625000000000007 500.00000000000006 -0.24999999999999994 2.9700000000000002 109.50000000000001 858.50000000000011 24.750000000000004 1150.0000000000002 0.98955000000000015 4.7150000000000007 1.8150000000000002 53281.500000000007 1150.0000000000002 500.00000000000006
decision_type=2 2 2 2 2 2 2 2 2 2 2 2 2 2 2 2 2 2 2 2 2 2 2 2 2 2 2 2 2 2
left_child=1 5 15 12 9 23 10 11 13 -2 -5 25 17 20 -8 21 24 -4 -10 -15 -7 28 -14 29 -13 -6 -17 -23 -3 -1
right_child=4 2 3 6 7 8 14 -9 18 -11 -12 16 22 19 -16 26 -18 -19 -20 -21 -22 27 -24 -25 -26 -27 -28 -29 -30 -31
leaf_value=-393.7604766665126 1727.6612978178882 -363.4110019178276 -136.07461344401042 591.54016616821298 2702.1168359375001 -298.94755120144424 779.17420772429432 2359.6722881610581 275.88267484966076 951.76389058431005 180.93743198939734 3205.276282269022 9.6800431251525882 -187.26881966426456 1069.7387805569558 -194.40930629996367 3025.9169300426138 -12.217171567281088 44.732880440273803 -54.363143178468114 -229.01009495823951 -294.43557500424589 148.64620789454534 -348.42358912417762 3382.9875697544649 2892.0487537202384 -94.723210059895237 -253.26195864846522 -321.81982468825123 -379.9578562195864
leaf_weight=676 29 83 138 240 20 251 31 39 38 24 35 23 36 87 93 43 22 135 37 93 333 46 130 342 28 21 51 141 52 411
leaf_count=676 29 83 138 240 20 251 31 39 38 24 35 23 36 87 93 43 22 135 37 93 333 46 130 342 28 21 51 141 52 411
internal_value=-6.81433 -153.369 129.063 323.613 2498.85 -309.529 681.56 2887.7 -191.306 1376.31 539.282 3068.34 -1.72011 -225.974 997.098 -262.842 3219.39 -74.8264 161.849 -118.601 -259.069 -298.608 118.509 -378.94 3302.84 2799.4 -140.324 -263.39 -347.391 -388.542
internal_weight=3728 3522 1254 838 206 2268 399 153 839 53 275 114 439 764 124 416 73 273 75 180 584 322 166 1429 51 41 94 187 135 1087
internal_count=3728 3522 1254 838 206 2268 399 153 839 53 275 114 439 764 124 416 73 273 75 180 584 322 166 1429 51 41 94 187 135 1087
is_linear=0
shrinkage=0.05


Tree=4
num_leaves=31
num_cat=0
split_feature=16 15 12 10 15 12 16 2 10 1 1 15 18 15 10 15 23 20 10 1 15 15 2 15 23 10 1 1 18 10
split_gain=4.94203e+11 5.60764e+10 3.45156e+10 3.52289e+10 3.24607e+10 6.71866e+09 6.53688e+09 5.26827e+09 3.70823e+09 2.85397e+09 1.6825e+09 1.42471e+09 1.39295e+09 1.21243e+09 9.80062e+08 6.58065e+08 5.62378e+08 4.89562e+08 3.77922e+08 3.61592e+08 2.94065e+08 2.52715e+08 2.04492e+08 1.99706e+08 1.88142e+08 1.51151e+08 1.02557e+08 2.79969e+07 2.12266e+07 1.99645e+07
threshold=492526.50000000006 332.50000000000006 1.0000000180025095e-35 1150.0000000000002 34143.000000000007 1.0000000180025095e-35 85374.000000000015 -0.68301270189221952 1150.0000000000002 -0.93301270189221908 -0.93301270189221908 49731.500000000007 93554.500000000015 2240.5000000000005 500.00000000000006 4921.5000000000009 0.97155000000000014 0.98325000000000007 500.00000000000006 -0.93301270189221908 182.50000000000003 109.50000000000001 -0.68301270189221952 858.50000000000011 0.98955000000000015 1150.0000000000002 0.68301270189221941 0.93301270189221952 53281.500000000007 1150.0000000000002
decision_type=2 2 2 2 2 2 2 2 2 2 2 2 2 2 2 2 2 2 2 2 2 2 2 2 2 2 2 2 2 2
left_child=1 5 15 12 9 25 10 11 14 -2 -5 16 18 -8 21 23 -6 24 -4 -10 -16 -7 -14 29 -13 -1 -17 -28 -25 -3
right_child=4 2 3 6 7 8 13 -9 19 -11 -12 17 22 -15 20 26 -18 -19 -20 -21 -22 -23 -24 28 -26 -27 27 -29 -30 -31
leaf_value=-369.11456975998306 904.17570597330723 -345.24046822053845 -129.27087990581126 127.17544641823605 2496.1570605468751 -284.0001636033989 661.10863830566404 2241.6886793870194 42.496236002123034 1641.2782529633621 533.11976037540342 3047.6812890625001 145.39578348330366 979.98706680689111 -178.01521224975588 -233.76713989257814 2855.1533772786461 2888.1901837384262 -11.606312443415325 262.08853751734682 -50.167534012379861 -217.55959710931634 18.725182519957077 -279.71379766049591 3257.3664317255439 -331.00241370842474 -134.51128280639648 -72.798989778406494 -240.59885271221188 -305.72883347731374
leaf_weight=1087 24 83 138 29 20 251 40 39 37 29 213 20 123 117 88 20 24 27 135 38 92 333 43 46 23 342 40 34 141 52
leaf_count=1087 24 83 138 29 20 251 40 39 37 29 213 20 123 117 88 20 24 27 135 38 92 333 43 46 23 342 40 34 141 52
internal_value=-6.47362 -145.701 122.61 307.432 2373.9 -294.052 647.482 2743.31 -181.741 1307.5 484.474 2914.92 -1.6341 898.744 -214.676 -249.7 2691.97 3055.06 -71.0851 153.756 -112.671 -246.115 112.584 -283.677 3159.84 -359.993 -133.308 -106.157 -250.221 -330.021
internal_weight=3728 3522 1254 838 206 2268 399 153 839 53 242 114 439 157 764 416 44 70 273 75 180 584 166 322 43 1429 94 74 187 135
internal_count=3728 3522 1254 838 206 2268 399 153 839 53 242 114 439 157 764 416 44 70 273 75 180 584 166 322 43 1429 94 74 187 135
is_linear=0
shrinkage=0.05


Tree=5
num_leaves=31
num_cat=0
split_feature=17 2 10 0 15 10 12 10 17 0 7 15 2 22 15 2 0 0 0 10 15 0 15 15 2 10 10 2 0 0
split_gain=4.93396e+11 5.52704e+10 6.34193e+10 2.96798e+10 7.24941e+09 4.98345e+09 3.25402e+09 3.42982e+09 3.20312e+09 2.72733e+09 2.23691e+09 1.66895e+09 1.4621e+09 8.76158e+08 8.52825e+08 7.07201e+08 1.01959e+09 6.69917e+08 5.78352e+08 4.25598e+08 3.73364e+08 3.5288e+08 3.17129e+08 3.01764e+08 2.60248e+08 2.51013e+08 1.75125e+08 1.6843e+08 1.24214e+08 8.70994e+07
threshold=498123.50000000006 -0.24999999999999994 1150.0000000000002 216.50000000000003 2074.0000000000005 500.00000000000006 1.0000000180025095e-35 1150.0000000000002 104267.50000000001 237.50000000000003 5.3350000000000009 789.00000000000011 -0.68301270189221952 0.87245000000000006 500.00000000000006 -0.68301270189221952 194.50000000000003 112.50000000000001 136.50000000000003 250.00000000000003 1454.5000000000002 168.50000000000003 10941.000000000002 454.50000000000006 -0.68301270189221952 500.00000000000006 1150.0000000000002 -0.68301270189221952 128.50000000000003 259.50000000000006
decision_type=2 2 2 2 2 2 2 2 2 2 2 2 2 2 2 2 2 2 2 2 2 2 2 2 2 2 2 2 2 2
left_child=1 2 5 10 12 19 11 25 17 -5 15 26 23 29 24 16 -2 -6 -12 -1 -14 -20 -13 -4 -7 -8 -3 -21 -16 -9
right_child=3 6 4 9 8 14 7 13 -10 -11 18 22 20 -15 28 -17 -18 -19 21 27 -22 -23 -24 -25 -26 -27 -28 -29 -30 -31
leaf_value=-259.35389537119494 2814.2159307065217 -349.33190063579752 454.13813550544512 1707.6835611979168 573.40137143342395 21.634832096569184 -292.64263884171197 119.2943141937256 1497.2051757812501 1020.3136553364416 2612.3412464488638 -234.23054076077648 290.56468550942162 435.38759643554687 54.198533192086728 2249.101104266827 2357.2009840745191 869.66236049107147 2991.5655841206399 -143.32307776474372 500.19051862444195 2741.5140531994048 -101.43426282065256 628.94937843789864 -81.727902260804797 -174.58778651469464 -310.84446748840026 -210.407049439285 151.57641577720642 -6.1412499520086472
leaf_weight=193 23 1183 33 27 23 127 115 25 20 31 22 228 88 20 47 26 26 112 43 246 28 21 56 98 117 74 394 151 108 31
leaf_count=193 23 1183 33 27 23 127 115 25 20 31 22 228 88 20 47 26 26 112 43 246 28 21 56 98 117 74 394 151 108 31
internal_value=7.43299 -135.951 109.096 2310.09 638.64 -106.149 -296.28 -132.353 906.674 1340.3 2659.45 -319.622 470.44 151.312 30.3334 2459.88 2571.72 819.188 2833.5 -198.448 341.164 2909.52 -208.045 584.913 -27.9284 -246.42 -339.716 -168.839 122.049 49.8568
internal_weight=3736 3517 1391 219 402 989 2126 265 155 58 161 1861 247 76 399 75 49 135 86 590 116 64 284 131 244 189 1577 397 155 56
internal_count=3736 3517 1391 219 402 989 2126 265 155 58 161 1861 247 76 399 75 49 135 86 590 116 64 284 131 244 189 1577 397 155 56
is_linear=0
shrinkage=0.05


Tree=6
num_leaves=31
num_cat=0
split_feature=17 2 10 0 15 10 12 10 17 0 7 15 2 22 15 2 0 0 0 9 22 23 15 15 2 10 10 2 0 0
split_gain=4.45289e+11 4.98816e+10 5.72359e+10 2.6786e+10 6.54259e+09 4.49756e+09 2.93675e+09 3.09541e+09 2.89081e+09 2.47024e+09 2.01882e+09 1.50622e+09 1.31955e+09 7.90733e+08 7.69675e+08 6.38249e+08 9.20181e+08 6.046e+08 5.21962e+08 3.84102e+08 3.53376e+08 3.45978e+08 2.86209e+08 2.72342e+08 2.34874e+08 2.26539e+08 1.5805e+08 1.52008e+08 1.12103e+08 7.86072e+07
threshold=498123.50000000006 -0.24999999999999994 1150.0000000000002 216.50000000000003 2074.0000000000005 500.00000000000006 1.0000000180025095e-35 1150.0000000000002 104267.50000000001 241.50000000000003 5.3350000000000009 789.00000000000011 -0.68301270189221952 0.87245000000000006 500.00000000000006 -0.68301270189221952 194.50000000000003 112.50000000000001 136.50000000000003 350000.00000000006 0.71930000000000016 0.9890500000000001 10941.000000000002 454.50000000000006 -0.68301270189221952 500.00000000000006 1150.0000000000002 -0.68301270189221952 128.50000000000003 259.50000000000006
decision_type=2 2 2 2 2 2 2 2 2 2 2 2 2 2 2 2 2 2 2 2 2 2 2 2 2 2 2 2 2 2
left_child=1 2 5 10 12 19 11 25 17 -5 15 26 23 29 24 16 -2 -6 -12 27 -14 -20 -13 -4 -7 -8 -3 -1 -16 -9
right_child=3 6 4 9 8 14 7 13 -10 -11 18 22 20 -15 28 -17 -18 -19 21 -21 -22 -23 -24 -25 -26 -27 -28 -29 -30 -31
leaf_value=-136.15692620006035 2673.5051460597829 -331.86531391159923 431.4312407522491 1588.5236067708333 544.73130307404892 20.553091182108002 -278.0105096170177 113.32960153198242 1422.3448925781249 935.52188982282371 2481.7242365056823 -222.51901609186541 176.34877634684244 413.61822280883791 51.488606075530356 2136.646026141827 2239.3409179687501 826.17924194335944 2608.8270125679351 -246.38619517588245 375.64897844181507 2851.1130859375003 -96.362548828125 597.50191675302938 -77.641507049299719 -165.85840021081873 -295.30224194212013 -199.88669425509624 143.99759255515207 -5.8341880859867219
leaf_weight=246 23 1183 33 30 23 127 115 25 20 28 22 228 30 20 47 26 26 112 23 193 86 41 56 98 117 74 394 151 108 31
leaf_count=246 23 1183 33 30 23 127 115 25 20 28 22 228 30 20 47 26 26 112 23 193 86 41 56 98 117 74 394 151 108 31
internal_value=7.06134 -129.153 103.641 2194.58 606.708 -100.841 -281.466 -125.736 861.341 1273.28 2526.48 -303.641 446.918 143.747 28.8168 2336.88 2443.13 778.229 2691.82 -188.525 324.106 2764.04 -197.643 555.667 -26.532 -234.099 -322.73 -160.397 115.946 47.3639
internal_weight=3736 3517 1391 219 402 989 2126 265 155 58 161 1861 247 76 399 75 49 135 86 590 116 64 284 131 244 189 1577 397 155 56
internal_count=3736 3517 1391 219 402 989 2126 265 155 58 161 1861 247 76 399 75 49 135 86 590 116 64 284 131 244 189 1577 397 155 56
is_linear=0
shrinkage=0.05


Tree=7
num_leaves=31
num_cat=0
split_feature=17 2 10 0 17 10 12 10 17 0 7 7 9 0 21 2 0 2 0 17 18 9 18 0 1 10 10 17 2 0
split_gain=4.01874e+11 4.50181e+10 5.16554e+10 2.41744e+10 5.56363e+09 4.05905e+09 2.65042e+09 2.79361e+09 2.41875e+09 2.25262e+09 1.82198e+09 1.37272e+09 1.33708e+09 6.50164e+08 6.19789e+08 5.7602e+08 8.30463e+08 5.2328e+08 4.71071e+08 4.10341e+08 4.04912e+08 3.46652e+08 3.07348e+08 2.88256e+08 2.36691e+08 2.08062e+08 2.04451e+08 1.44565e+08 1.37187e+08 7.21374e+07
threshold=498123.50000000006 -0.24999999999999994 1150.0000000000002 216.50000000000003 89491.000000000015 500.00000000000006 1.0000000180025095e-35 1150.0000000000002 104267.50000000001 243.50000000000003 5.3350000000000009 4.8650000000000011 1500000.0000000002 189.50000000000003 0.85865000000000002 -0.68301270189221952 194.50000000000003 -0.68301270189221952 136.50000000000003 51030.500000000007 51916.500000000007 350000.00000000006 100751.50000000001 168.50000000000003 0.68301270189221941 1150.0000000000002 500.00000000000006 93115.000000000015 -0.68301270189221952 259.50000000000006
decision_type=2 2 2 2 2 2 2 2 2 2 2 2 2 2 2 2 2 2 2 2 2 2 2 2 2 2 2 2 2 2
left_child=1 2 5 10 11 21 12 26 13 -5 15 20 25 -6 29 16 -2 22 -12 -13 -4 28 -7 -20 -14 -3 -8 -19 -1 -9
right_child=3 6 4 9 8 17 7 14 -10 -11 18 19 24 -15 -16 -17 -18 27 23 -21 -22 -23 -24 -25 -26 -27 -28 -29 -30 -31
leaf_value=-129.34907876611726 2539.8298828125003 -315.27205107842883 208.16058679134289 1480.8319898200759 840.01089736729455 14.547916617760292 -264.10997325067933 107.66312170410157 1351.2276562500001 851.61394726562503 2357.6379971590909 364.15875439453129 -206.39622564548401 582.72523589263096 360.26172596324574 2029.8137282151442 2127.3738469050481 -92.44328863681892 2699.9950899345931 586.06167226562502 395.33671879069016 -234.06688517041778 126.87530664158619 2473.9969029017861 -92.376131081959556 -275.35933088146135 -157.56548004150392 4.1338006981007469 -189.89235839843752 -8.2354739222033277
leaf_weight=246 23 1183 47 33 73 117 115 25 20 25 22 25 164 37 22 26 26 78 43 125 75 193 127 21 63 451 74 77 151 29
leaf_count=246 23 1183 47 33 73 117 115 25 20 25 22 25 164 37 22 26 26 78 43 125 75 193 127 21 63 451 74 77 151 29
internal_value=6.70827 -122.696 98.4588 2084.85 576.372 -95.7993 -267.393 -119.449 845.432 1209.62 2400.15 447.777 -288.459 753.469 136.559 2220.04 2320.98 27.3759 2557.23 549.078 323.228 -179.099 73.0134 2625.84 -174.752 -304.256 -222.394 -44.4663 -152.377 45.4213
internal_weight=3736 3517 1391 219 402 989 2126 265 130 58 161 272 1861 110 76 75 49 399 86 150 122 590 244 64 227 1634 189 155 397 54
internal_count=3736 3517 1391 219 402 989 2126 265 130 58 161 272 1861 110 76 75 49 399 86 150 122 590 244 64 227 1634 189 155 397 54
is_linear=0
shrinkage=0.05


Tree=8
num_leaves=31
num_cat=0
split_feature=16 15 0 7 10 18 5 7 13 0 10 0 17 3 23 16 0 7 0 13 5 10 0 9 23 7 10 0 9 7
split_gain=3.75842e+11 3.81335e+10 1.8266e+10 1.58124e+10 2.27221e+10 3.44847e+09 2.79982e+09 2.17405e+09 1.93189e+09 1.6043e+09 1.52587e+09 1.40263e+09 1.20669e+09 1.09761e+09 1.07853e+09 1.02895e+09 7.94207e+08 6.4024e+08 5.59043e+08 5.23103e+08 5.1261e+08 4.85821e+08 4.53937e+08 4.23677e+08 3.9953e+08 2.82353e+08 3.76888e+08 3.04535e+08 2.75833e+08 2.4378e+08
threshold=492526.50000000006 346.50000000000006 216.50000000000003 3.8600000000000008 1150.0000000000002 78051.500000000015 15.350000000000003 5.0950000000000006 0.95045000000000013 237.50000000000003 700.00000000000011 92.500000000000014 96766.500000000015 18.250000000000004 0.84765000000000013 581333.00000000012 198.50000000000003 4.7150000000000007 90.500000000000014 0.75930000000000009 18.850000000000005 500.00000000000006 138.50000000000003 450000.00000000006 0.9890500000000001 1.4000000000000001 700.00000000000011 225.50000000000003 175000.00000000003 1.2950000000000002
decision_type=2 2 2 2 2 2 2 2 2 2 2 2 2 2 2 2 2 2 2 2 2 2 2 2 2 2 2 2 2 2
left_child=1 6 7 8 12 11 25 15 13 -4 18 -6 28 29 -15 -2 -17 -7 -8 23 -10 -20 -9 -12 -24 -1 -27 -28 -5 -3
right_child=2 3 9 4 5 17 10 22 20 -11 19 -13 -14 14 -16 16 -18 -19 21 -21 -22 -23 24 -25 -26 26 27 -29 -30 -31
leaf_value=-290.95600434925933 1777.3984960937503 -184.05484582583111 1468.8315863715279 -4.5941349066576915 8.4825747680664065 531.67978660218864 -290.35820167670818 2245.4622602982959 -212.02188847162952 923.76895345052094 170.24941894697108 451.71299328172063 107.44457956416699 -39.41844215393067 356.98270585343647 2399.9692522321429 1965.1166015625001 777.24972882231407 -191.80284856106718 -216.7423760986328 -1.2222925662994386 -69.487059129987458 2325.3406040736609 -53.77010024633163 2570.3587842987808 -269.14219803986725 -253.3259162902832 -47.5081788039789 -110.15870226452428 6.4097495215279725
leaf_weight=1210 25 42 27 103 20 34 118 33 292 27 46 166 158 32 37 21 21 121 473 20 32 98 28 39 41 216 32 41 155 28
leaf_count=1210 25 42 27 103 20 34 118 33 292 27 46 166 158 32 37 21 21 121 473 20 32 98 28 39 41 216 32 41 155 28
internal_value=6.37286 -119.979 1996.85 105.863 246.64 549.203 -240.14 2252.64 -124.305 1196.3 -164.226 404.054 -1.37392 31.6269 173.144 2031.37 2182.54 723.383 -191.284 13.3294 -191.202 -170.81 2397.99 67.464 2470.93 -280.351 -235.948 -137.73 -68.0147 -107.869
internal_weight=3736 3513 223 1220 757 341 2293 169 463 54 794 186 416 139 69 67 42 155 689 105 324 571 102 85 69 1499 289 73 258 70
internal_count=3736 3513 223 1220 757 341 2293 169 463 54 794 186 416 139 69 67 42 155 689 105 324 571 102 85 69 1499 289 73 258 70
is_linear=0
shrinkage=0.05


Tree=9
num_leaves=31
num_cat=0
split_feature=16 2 10 0 16 10 2 15 0 1 16 15 0 1 0 15 10 15 0 13 20 15 10 0 2 0 16 10 15 16
split_gain=3.39198e+11 3.45459e+10 3.85811e+10 1.65496e+10 3.74247e+09 3.31404e+09 2.69918e+09 2.16761e+09 1.50855e+09 1.48444e+09 9.47385e+08 8.69586e+08 8.37171e+08 8.02501e+08 5.95344e+08 5.81928e+08 5.59151e+08 4.0681e+08 3.92343e+08 3.53865e+08 3.48457e+08 3.2437e+08 3.01042e+08 1.88903e+08 1.87462e+08 1.87246e+08 1.36665e+08 1.3168e+08 1.10107e+08 8.90143e+07
threshold=492526.50000000006 -0.24999999999999994 1150.0000000000002 221.50000000000003 85374.000000000015 500.00000000000006 -0.68301270189221952 568.50000000000011 194.50000000000003 -0.93301270189221908 51494.500000000007 46655.000000000007 243.50000000000003 -0.93301270189221908 196.50000000000003 500.00000000000006 700.00000000000011 25703.000000000004 196.50000000000003 0.98275000000000012 0.96805000000000008 3047.0000000000005 250.00000000000003 266.50000000000006 -0.68301270189221952 229.50000000000003 46862.000000000007 1150.0000000000002 4921.5000000000009 116136.00000000001
decision_type=2 2 2 2 2 2 2 2 2 2 2 2 2 2 2 2 2 2 2 2 2 2 2 2 2 2 2 2 2 2
left_child=1 2 5 6 10 22 8 13 19 -9 25 -8 -5 16 21 24 -3 28 -12 20 -2 -6 -1 -18 -7 -4 -24 -15 -11 -17
right_child=3 7 4 12 14 15 11 9 -10 17 18 -13 -14 27 -16 29 23 -19 -20 -21 -22 -23 26 -25 -26 -27 -28 -29 -30 -31
leaf_value=-212.573041182602 2215.3941503906253 -236.00546257113234 276.89848865855828 1247.5710273437501 706.88084615071614 19.156035297874393 1626.0890456627158 172.63304395933412 1913.0072614397322 -192.39115242004397 489.01534274961887 2054.6478466796875 819.34164109002984 -284.83806926694126 509.10307617187505 51.295943844109253 -36.780835654518818 40.306976036403491 315.0421372847124 2187.9005859375002 2463.0544244260204 919.73605069247151 -154.83694008275083 -198.16779968261721 -68.569594929360946 98.245607452392576 -89.649681963239402 -250.71871660156251 -112.13811105581431 129.87654932372425
leaf_weight=193 20 162 55 25 96 127 29 37 28 240 123 20 21 1150 34 57 66 23 44 31 49 22 285 25 117 20 112 375 52 98
leaf_count=193 20 162 55 25 96 127 29 37 28 240 123 20 21 1150 34 57 66 23 44 31 49 22 285 25 117 20 112 375 52 98
internal_value=6.05422 -113.98 80.604 1897 499.008 -86.0808 2116.59 -240.323 2237.4 -126.962 376.88 1801.01 1052.08 -262.766 693.449 25.2179 -180.295 -162.152 443.178 2328.22 2391.27 746.566 -161.349 -81.1179 -22.9091 229.258 -136.447 -276.448 -178.1 100.979
internal_weight=3736 3513 1383 223 394 989 177 2130 128 352 242 49 46 1778 152 399 253 315 167 100 69 118 590 91 244 75 397 1525 292 155
internal_count=3736 3513 1383 223 394 989 177 2130 128 352 242 49 46 1778 152 399 253 315 167 100 69 118 590 91 244 75 397 1525 292 155
is_linear=0
shrinkage=0.05


Tree=10
num_leaves=31
num_cat=0
split_feature=16 15 12 10 7 16 12 2 2 10 17 3 10 21 13 10 23 23 15 16 18 15 2 15 10 19 4 16 10 10
split_gain=2.92786e+11 3.17362e+10 1.93522e+10 1.98269e+10 1.93191e+10 4.54044e+09 3.48392e+09 2.53927e+09 2.21285e+09 1.86459e+09 1.29458e+09 1.08723e+09 7.10155e+08 5.66272e+08 5.26868e+08 4.71712e+08 3.09954e+08 5.61714e+08 3.03269e+08 2.59083e+08 2.14569e+08 1.89571e+08 1.25976e+08 1.02981e+08 8.37769e+07 4.2756e+07 4.20253e+07 3.39203e+07 1.74452e+07 1.6712e+07
threshold=492526.50000000006 326.50000000000006 1.0000000180025095e-35 1150.0000000000002 4.0450000000000008 89105.000000000015 1.0000000180025095e-35 -0.68301270189221952 -0.24999999999999994 1150.0000000000002 104267.50000000001 23.750000000000004 500.00000000000006 0.9980500000000001 0.96295000000000008 500.00000000000006 0.9990500000000001 0.98995000000000011 4921.5000000000009 111978.00000000001 49182.500000000007 236.50000000000003 -0.68301270189221952 909.50000000000011 1150.0000000000002 36287.000000000007 21.750000000000004 40594.500000000007 1150.0000000000002 500.00000000000006
decision_type=2 2 2 2 2 2 2 2 2 2 2 2 2 2 2 2 2 2 2 2 2 2 2 2 2 2 2 2 2 2
left_child=1 6 18 12 8 11 24 14 -2 15 -7 -5 25 -9 -6 22 17 -16 23 -14 27 -17 -8 28 29 -4 -20 -11 -3 -1
right_child=4 2 3 5 7 10 9 13 -10 20 -12 -13 19 -15 16 21 -18 -19 26 -21 -22 -23 -24 -25 -26 -27 -28 -29 -30 -31
leaf_value=-277.22262612123842 1253.4144308035716 -258.35038671875003 -140.0978951119088 228.01786755490048 1939.2822607421876 653.27881823088001 -157.08904027938843 1527.3636035156251 630.06343282063801 -8.5333306085495728 1072.2073375355114 440.00415631773842 2.653213751212109 1899.1125279017861 2143.7987486373545 -126.48603540194239 2049.6703497023809 2411.5031792534724 -153.94487738976113 95.981031561898817 215.59419239185479 -17.924259973744878 -204.87556266657086 -185.20862211528578 -243.70498758035379 -77.186669461131103 -77.022639193651941 76.904910425039446 -222.34379602651131 -264.61970520727596
leaf_weight=675 35 75 37 93 20 114 256 20 24 21 22 173 172 21 43 118 21 36 26 131 27 61 299 190 333 100 56 26 61 431
leaf_count=675 35 75 37 93 20 114 256 20 24 21 22 173 172 21 43 118 21 36 26 131 27 61 299 190 333 100 56 26 61 431
internal_value=4.61053 -106.694 95.2573 232.205 1773.84 486.042 -219.039 2057.48 999.848 -135.953 721.047 365.889 0.289952 1717.77 2173.55 -160.07 2220.41 2265.79 -187.365 43.0029 103.262 -89.4901 -182.833 -208.984 -265.692 -94.1773 -101.413 38.7304 -242.2 -272.311
internal_weight=3717 3497 1250 842 220 402 2247 161 59 808 136 266 440 41 120 734 100 79 408 303 74 179 555 326 1439 137 82 47 136 1106
internal_count=3717 3497 1250 842 220 402 2247 161 59 808 136 266 440 41 120 734 100 79 408 303 74 179 555 326 1439 137 82 47 136 1106
is_linear=0
shrinkage=0.05


Tree=11
num_leaves=31
num_cat=0
split_feature=16 15 0 12 15 11 15 12 9 17 11 0 2 2 9 15 11 17 21 23 0 9 0 9 15 11 0 8 0 15
split_gain=2.64239e+11 2.86419e+10 1.76621e+10 1.74653e+10 1.55325e+10 4.1645e+09 3.23389e+09 3.14423e+09 2.75149e+09 1.54498e+09 1.44711e+09 1.18209e+09 6.03766e+08 5.44542e+08 4.03426e+08 2.737e+08 2.62644e+08 2.27974e+08 2.44085e+08 3.55894e+08 2.20631e+08 2.02055e+08 1.7122e+08 1.18067e+08 9.30614e+07 6.74807e+07 6.38347e+07 4.21563e+07 2.82583e+07 2.76976e+07
threshold=492526.50000000006 326.50000000000006 223.50000000000003 1.0000000180025095e-35 1726.0000000000002 500.00000000000006 46655.000000000007 1.0000000180025095e-35 250000.00000000003 104267.50000000001 500.00000000000006 248.50000000000003 -0.68301270189221952 -0.68301270189221952 450000.00000000006 4921.5000000000009 375.00000000000006 559542.50000000012 0.97605000000000008 0.99875000000000014 237.50000000000003 175000.00000000003 225.50000000000003 350000.00000000006 1454.5000000000002 500.00000000000006 245.50000000000003 10.15 54.500000000000007 136.50000000000003
decision_type=2 2 2 2 2 2 2 2 2 2 2 2 2 2 2 2 2 2 2 2 2 2 2 2 2 2 2 2 2 2
left_child=1 7 6 15 5 21 12 25 -7 13 16 -4 -2 -6 20 24 23 -8 -19 -20 -12 -5 -18 -9 -3 -1 -16 -17 -26 -27
right_child=2 3 11 4 9 8 17 10 -10 -11 14 -13 -14 -15 26 27 22 18 19 -21 -22 -23 -24 -25 28 29 -28 -29 -30 -31
leaf_value=-260.50264383400764 1794.6000538793105 -226.42250898312301 1046.8034964425224 -1.7407384665239427 635.64454501065347 372.69122236202929 1929.6925634765628 -153.85603720925073 102.5125616058582 1018.5969804243609 215.4048569899339 543.51017150878909 1479.6112030029299 440.54991961785083 -19.562434124124465 -159.46320281982423 -26.99243322199041 1996.3984779094826 2260.9782983398436 2010.6069691051136 34.557835922638581 -89.468429098338106 -148.64753778176231 -200.50373633433196 -133.614673699273 -246.80631745793272 -120.54120950137867 -75.980302361519108 -183.51047736779969 -222.81479620009819
leaf_weight=923 29 156 28 126 110 156 20 319 238 22 26 20 32 53 29 20 55 29 40 22 48 137 61 236 36 325 34 62 134 191
leaf_count=923 29 156 28 126 110 156 20 319 238 22 26 20 32 53 29 20 55 29 40 22 48 137 61 236 36 325 34 62 134 191
internal_value=4.38001 -101.359 1685.15 90.4944 220.594 106.638 1921.82 -208.087 209.487 625.293 -129.155 837.098 1629.36 572.209 18.9313 -177.996 -159.391 2082.54 2116.13 2172.14 98.0987 -47.4392 -90.9662 -173.692 -198.535 -252.407 -74.0589 -96.342 -172.944 -237.926
internal_weight=3717 3497 220 1250 842 657 172 2247 394 185 808 48 61 163 137 408 671 111 91 62 74 263 116 555 326 1439 63 82 170 516
internal_count=3717 3497 220 1250 842 657 172 2247 394 185 808 48 61 163 137 408 671 111 91 62 74 263 116 555 326 1439 63 82 170 516
is_linear=0
shrinkage=0.05


Tree=12
num_leaves=31
num_cat=0
split_feature=15 15 12 10 0 12 0 15 10 19 0 10 15 10 0 0 0 23 15 15 2 2 10 2 2 17 0 15 0 21
split_gain=2.36344e+11 2.83155e+10 1.70581e+10 1.35191e+10 1.22035e+10 4.88556e+09 4.06367e+09 2.87233e+09 2.74086e+09 1.27174e+09 9.66906e+08 8.73962e+08 7.05856e+08 6.16212e+08 5.35213e+08 3.08884e+08 2.74352e+08 2.99076e+08 1.58005e+08 1.56343e+08 1.5487e+08 1.21416e+08 8.07289e+07 7.18541e+07 3.99201e+07 3.84433e+07 3.56566e+07 2.93393e+07 2.16394e+07 1.87731e+07
threshold=30125.000000000004 443.50000000000006 1.0000000180025095e-35 1150.0000000000002 94.500000000000014 1.0000000180025095e-35 200.50000000000003 2240.5000000000005 1150.0000000000002 448007.00000000006 225.50000000000003 500.00000000000006 14197.500000000002 500.00000000000006 229.50000000000003 225.50000000000003 178.50000000000003 0.99875000000000014 38471.000000000007 12935.000000000002 -0.68301270189221952 -0.9330127018922193 1150.0000000000002 0.25000000000000017 -0.68301270189221952 41955.000000000007 118.50000000000001 4921.5000000000009 270.50000000000006 0.99365000000000014
decision_type=2 2 2 2 2 2 2 2 2 2 2 2 2 2 2 2 2 2 2 2 2 2 2 2 2 2 2 2 2 2
left_child=1 5 19 13 -2 22 9 10 11 -6 -5 20 -9 26 24 -13 17 -11 -8 23 -7 -15 -1 29 -10 -16 -4 -25 -24 -3
right_child=4 2 3 7 6 8 18 12 14 16 -12 15 -14 21 25 -17 -18 -19 -20 -21 -22 -23 28 27 -26 -27 -28 -29 -30 -31
leaf_value=-245.55443875777161 494.96380745887757 -260.39070983886717 -126.73099311379826 399.73824112301781 1597.8365761718751 -133.77250920881303 1251.6199560546875 567.79511619774075 312.83753222656253 2090.7392501831055 153.0109624349154 -10.928742508257137 837.55958209859909 142.37566789899554 -5.6958548006804097 -115.44825247141942 1850.9199327256947 1889.642303936298 1450.3690527343751 -74.09962238130116 -185.03596479572235 46.124470283841134 -202.15628978933088 -168.96606212797622 219.32604733421692 75.429556948542597 -64.019676432890051 -110.27820879618328 -227.69723073233547 -204.08772186814693
leaf_weight=1146 20 20 34 168 25 285 20 148 25 64 52 170 29 42 23 121 27 26 20 42 305 149 131 189 21 40 68 24 226 57
leaf_count=1146 20 20 34 168 25 285 20 148 25 64 52 170 29 42 23 121 27 26 20 42 305 149 131 189 21 40 68 24 226 57
internal_value=4.16101 -91.4172 130.226 271.921 1667.32 -182.279 1796.15 462.054 -96.0357 1921.54 341.421 -125.299 611.994 14.3008 140.486 -54.3887 1990.71 2032.64 1350.99 -164.26 -160.273 67.2897 -239.087 -177.318 270.148 45.8123 -84.9234 -162.353 -218.325 -218.712
internal_weight=3717 3515 1022 690 202 2493 182 397 990 142 220 881 177 293 109 291 117 90 40 332 590 191 1503 290 46 63 102 213 357 77
internal_count=3717 3515 1022 690 202 2493 182 397 990 142 220 881 177 293 109 291 117 90 40 332 590 191 1503 290 46 63 102 213 357 77
is_linear=0
shrinkage=0.05


Tree=13
num_leaves=31
num_cat=0
split_feature=16 15 0 12 15 11 15 12 9 18 11 0 2 2 9 3 3 9 15 0 5 15 9 15 11 0 2 0 0 15
split_gain=2.15315e+11 2.33433e+10 1.45174e+10 1.43221e+10 1.27633e+10 3.37765e+09 2.61053e+09 2.55656e+09 2.21553e+09 1.52501e+09 1.19737e+09 9.9267e+08 4.9192e+08 4.69608e+08 3.24839e+08 2.1567e+08 3.36711e+08 2.14922e+08 2.00967e+08 1.84255e+08 1.79393e+08 1.68868e+08 1.60593e+08 7.82263e+07 5.61918e+07 5.54667e+07 5.39484e+07 3.8645e+07 2.81724e+07 2.3533e+07
threshold=492526.50000000006 326.50000000000006 223.50000000000003 1.0000000180025095e-35 1726.0000000000002 500.00000000000006 46655.000000000007 1.0000000180025095e-35 250000.00000000003 105204.50000000001 500.00000000000006 248.50000000000003 -0.68301270189221952 -0.68301270189221952 450000.00000000006 25.650000000000002 27.050000000000004 350000.00000000006 4921.5000000000009 237.50000000000003 23.650000000000002 153.50000000000003 175000.00000000003 909.50000000000011 500.00000000000006 245.50000000000003 -0.68301270189221952 82.500000000000014 36.500000000000007 136.50000000000003
decision_type=2 2 2 2 2 2 2 2 2 2 2 2 2 2 2 2 2 2 2 2 2 2 2 2 2 2 2 2 2 2
left_child=1 7 6 18 5 22 12 24 -7 13 17 -4 -2 -6 19 -8 -17 21 23 -12 -18 -9 -5 -3 -1 -16 -19 -20 -25 -26
right_child=2 3 11 4 9 8 15 10 -10 -11 14 -13 -14 -15 25 16 20 26 27 -21 -22 -23 -24 28 29 -27 -28 -29 -30 -31
leaf_value=-235.19978945185537 1622.1227741109915 -207.97852630615236 944.48158656529017 -1.802024853607965 574.4169714791434 335.29072162921614 2009.40346875 -163.7750103985822 92.849614715175477 978.70315063476562 196.26968143169699 483.27125061035161 1337.8022613525391 393.76907544405958 -14.613960739661909 1683.5452189127607 2014.8654169497286 -160.25875941685268 -71.965309930616812 31.00209550857544 1838.8008338341349 -99.335963903853312 -80.0125941199978 -118.48563876681858 -222.7834523737981 -108.7417356603286 -208.18063088156961 -151.89581138610842 -167.61569443739856 -200.66905159675639
leaf_weight=923 29 136 28 126 112 156 25 162 238 20 26 20 32 53 29 24 23 126 62 48 39 273 137 36 325 34 110 20 154 191
leaf_count=923 29 136 28 126 112 156 25 162 238 20 26 20 32 53 29 24 23 126 62 48 39 273 137 36 325 34 110 20 154 191
internal_value=3.95296 -91.4968 1521.17 81.7041 199.517 96.2173 1735.74 -187.848 188.842 566.37 -116.674 752.311 1472.97 516.391 18.0298 1880.14 1842.56 -144.177 -161.429 89.0691 1904.12 -123.334 -42.5429 -179.029 -227.812 -65.4131 -182.595 -91.4606 -158.307 -214.598
internal_weight=3717 3497 220 1250 842 657 172 2247 394 185 808 48 61 165 137 111 86 671 408 74 62 435 263 326 1439 63 236 82 190 516
internal_count=3717 3497 220 1250 842 657 172 2247 394 185 808 48 61 165 137 111 86 671 408 74 62 435 263 326 1439 63 236 82 190 516
is_linear=0
shrinkage=0.05


Tree=14
num_leaves=31
num_cat=0
split_feature=16 15 0 2 10 15 16 2 10 15 0 0 15 16 2 10 0 17 21 23 0 10 15 1 15 0 0 15 10 10
split_gain=1.94322e+11 2.10722e+10 1.3102e+10 1.14201e+10 1.25111e+10 2.35601e+09 2.30427e+09 2.07472e+09 1.01346e+09 9.19171e+08 9.15138e+08 8.27765e+08 5.17372e+08 4.58687e+08 4.43958e+08 2.68007e+08 2.14952e+08 1.87948e+08 2.19699e+08 2.98031e+08 1.80626e+08 1.78976e+08 1.36938e+08 1.20053e+08 1.16224e+08 1.15131e+08 7.45266e+07 5.4327e+07 3.03638e+07 1.9916e+07
threshold=492526.50000000006 319.50000000000006 223.50000000000003 1.0000000180025095e-35 1150.0000000000002 46655.000000000007 89105.000000000015 1.0000000180025095e-35 1150.0000000000002 20217.500000000004 223.50000000000003 182.50000000000003 25703.000000000004 111978.00000000001 -0.68301270189221952 500.00000000000006 259.50000000000006 559542.50000000012 0.97605000000000008 0.99875000000000014 245.50000000000003 500.00000000000006 1992.0000000000002 0.68301270189221941 67.500000000000014 191.50000000000003 237.50000000000003 161.50000000000003 1150.0000000000002 500.00000000000006
decision_type=2 2 2 2 2 2 2 2 2 2 2 2 2 2 2 2 2 2 2 2 2 2 2 2 2 2 2 2 2 2
left_child=1 7 5 4 13 14 10 8 15 -4 -6 -8 22 21 -2 24 26 -7 -19 -20 -17 -3 28 -24 -1 -15 -10 29 -5 -9
right_child=2 3 9 12 6 17 11 27 16 -11 -12 -13 -14 25 -16 20 -18 18 19 -21 -22 -23 23 -25 -26 -27 -28 -29 -30 -31
leaf_value=-182.90440313309588 1541.0166049299569 -76.069433071302328 466.59902663457962 -205.83568374492503 347.89710624451732 1647.3491748046877 656.3479934112936 -227.22854587542088 173.22479148864747 907.65868055555552 122.81810651318781 408.82043353581838 74.772793494330514 105.13925404597303 1270.9121200561524 -38.954052985055114 -65.02478834298941 1703.0371901939657 1951.0649731445312 1721.9492498224431 -138.67969696044923 0.17894861259679684 -144.24005054924061 -53.41065093507158 -134.90720441210402 -2.8380382003206197 55.422526925185629 -196.97010834862954 -164.91942008305523 -213.82810028076176
leaf_weight=193 29 138 21 81 204 20 79 594 25 27 58 59 27 98 32 105 26 29 40 22 80 174 161 47 364 33 29 299 103 520
leaf_count=193 29 138 21 81 204 20 79 594 25 27 58 59 27 98 32 105 26 29 40 22 80 174 161 47 364 33 29 299 103 520
internal_value=3.75531 -86.922 1445.11 76.4156 182.455 1648.95 385.166 -179.151 -115.99 714.695 298.07 550.521 -136.93 -0.578901 1399.32 -134.22 53.0904 1786.13 1816.63 1869.77 -82.0787 -33.5463 -151.511 -123.716 -151.538 77.9389 109.961 -215.894 -182.931 -220.973
internal_weight=3717 3497 220 1262 843 172 400 2235 822 48 262 138 419 443 61 742 80 111 91 62 185 312 392 208 557 131 54 1413 184 1114
internal_count=3717 3497 220 1262 843 172 400 2235 822 48 262 138 419 443 61 742 80 111 91 62 185 312 392 208 557 131 54 1413 184 1114
is_linear=0
shrinkage=0.05


Tree=15
num_leaves=31
num_cat=0
split_feature=16 2 11 7 15 9 2 0 15 16 2 11 16 0 23 17 7 2 11 19 15 7 9 23 0 2 15 0 19 16
split_gain=1.61427e+11 1.8768e+10 1.76492e+10 1.28297e+10 5.39235e+09 2.52397e+09 2.17925e+09 1.55714e+09 1.31954e+09 7.71959e+08 7.03566e+08 6.07683e+08 5.53574e+08 4.77652e+08 5.1759e+08 4.68084e+08 4.51673e+08 4.01181e+08 3.4999e+08 2.61247e+08 2.58056e+08 2.44434e+08 2.00844e+08 1.60641e+08 1.54431e+08 1.27682e+08 1.14628e+08 1.11546e+08 9.32273e+07 8.33033e+07
threshold=492526.50000000006 -0.24999999999999994 500.00000000000006 4.0450000000000008 1834.5000000000002 450000.00000000006 -0.68301270189221952 251.50000000000003 538.50000000000011 49123.000000000007 1.0000000180025095e-35 375.00000000000006 98433.500000000015 191.50000000000003 0.9990500000000001 99306.000000000015 3.9750000000000005 1.0000000180025095e-35 500.00000000000006 623045.50000000012 45410.000000000007 5.5950000000000006 350000.00000000006 0.98995000000000011 201.50000000000003 -0.68301270189221952 6769.5000000000009 266.50000000000006 88590.500000000015 46862.000000000007
decision_type=2 2 2 2 2 2 2 2 2 2 2 2 2 2 2 2 2 2 2 2 2 2 2 2 2 2 2 2 2 2
left_child=1 2 11 7 5 9 13 19 17 -4 28 22 21 14 23 -14 26 18 -3 -2 -8 -6 29 -5 -7 -13 -12 -20 -10 -1
right_child=3 8 4 6 12 24 20 -9 10 -11 16 25 15 -15 -16 -17 -18 -19 27 -21 -22 -23 -24 -25 -26 -27 -28 -29 -30 -31
leaf_value=-112.82418999808176 802.10421368634263 -178.45153712996517 123.63213885298796 1738.2224419487848 407.80547158884451 72.401107195469976 1133.5058764648438 385.68032575334826 23.872731018066407 336.6246838154766 -145.46339979248046 15.988753888586992 518.8104600694445 1489.6367696126304 1519.0793261718752 837.95250366210939 109.80931530907043 -203.43313403926976 -22.516770664489631 1040.5267773437499 1381.6619495738637 569.67598915100098 -159.19714436433753 1894.8825032552083 -23.027764945733743 -65.696391609907153 -73.474099269383387 -150.38327742866849 173.02839605158027 -64.001975195051187
leaf_weight=280 27 166 56 36 86 139 20 21 20 177 250 119 27 24 20 20 21 1489 66 20 22 32 196 30 61 80 71 23 22 127
leaf_count=280 27 166 56 36 86 139 20 21 20 177 250 119 27 24 20 20 21 1489 66 20 22 32 196 30 61 80 71 23 22 127
internal_value=0.44679 -81.4949 60.6844 1314.49 266.276 173.591 1569.88 743.627 -175.034 285.433 -91.1261 -92.6119 509.502 1686.87 1741.91 654.616 -114.844 -193.509 -135.56 903.561 1263.49 451.703 -117.615 1809.43 43.2953 -16.8495 -129.541 -55.5609 102.002 -97.5897
internal_weight=3748 3528 1400 220 598 433 152 68 2128 233 384 802 165 110 86 47 342 1744 255 47 42 118 603 66 200 199 321 89 42 407
internal_count=3748 3528 1400 220 598 433 152 68 2128 233 384 802 165 110 86 47 342 1744 255 47 42 118 603 66 200 199 321 89 42 407
is_linear=0
shrinkage=0.05


Tree=16
num_leaves=31
num_cat=0
split_feature=16 12 10 7 16 2 15 7 7 17 15 16 10 19 23 23 23 23 15 10 18 2 15 2 10 18 20 19 1 19
split_gain=1.45688e+11 1.72171e+10 2.15963e+10 1.15788e+10 3.52556e+09 1.96678e+09 1.53293e+09 1.448e+09 1.15996e+09 8.95502e+08 5.31855e+08 5.12e+08 4.78409e+08 2.80961e+08 2.62625e+08 2.48431e+08 4.73519e+08 3.04729e+08 2.32895e+08 1.78301e+08 1.69908e+08 1.59067e+08 8.86321e+07 8.56113e+07 7.16331e+07 6.07227e+07 3.22768e+07 3.11111e+07 2.30193e+07 1.83699e+07
threshold=492526.50000000006 1.0000000180025095e-35 1150.0000000000002 4.0450000000000008 86805.000000000015 -0.68301270189221952 275.50000000000006 3.6450000000000005 2.0550000000000002 106027.50000000001 909.50000000000011 52460.500000000007 500.00000000000006 615092.00000000012 0.9406500000000001 0.9990500000000001 0.98995000000000011 0.97760000000000014 45410.000000000007 500.00000000000006 84470.000000000015 -0.68301270189221952 12935.000000000002 -0.68301270189221952 1150.0000000000002 32399.500000000004 0.90620000000000012 36287.000000000007 0.25000000000000011 525885.50000000012
decision_type=2 2 2 2 2 2 2 2 2 2 2 2 2 2 2 2 2 2 2 2 2 2 2 2 2 2 2 2 2 2
left_child=1 10 6 8 7 15 19 20 -2 14 24 -9 27 -10 -6 16 17 -5 -7 23 -4 -14 26 -3 -1 -21 -12 -8 -26 -28
right_child=3 2 4 5 9 18 12 11 13 -11 22 -13 21 -15 -16 -17 -18 -19 -20 25 -22 -23 -24 -25 28 -27 29 -29 -30 -31
leaf_value=-200.13796565000135 435.61281225585935 -115.69590315260331 63.276083377915988 1662.2523010253908 384.32799090949857 1076.8305810546876 -102.31683117094495 178.63323450769698 733.09061104910722 835.0574926757813 -88.829634812298949 354.58322239163556 49.919512550180613 988.77642045454547 531.31867187500006 1443.1253588867189 1800.1383691406249 1436.3875645228795 1312.5788396661933 -124.24207385519276 223.19141784667968 -23.719758496501228 -64.338872543970737 -156.6825464561233 -186.29741353261633 -54.828737830162055 -136.4734055074056 -59.610953565077352 -162.14799011575303 -186.98454376220704
leaf_weight=1164 25 222 98 32 49 20 63 56 21 20 34 158 220 22 80 20 30 28 22 46 20 110 57 299 223 100 180 132 177 20
leaf_count=1164 25 222 98 32 49 20 63 56 21 20 34 158 220 22 80 20 30 28 22 46 20 110 57 299 223 100 180 132 177 20
internal_value=0.42445 -77.4202 38.8877 1248.77 321.687 1491.39 -75.2282 231.001 706.446 523.75 -182.317 308.54 -11.3171 863.907 475.485 1602.52 1637.95 1556.85 1200.32 -125.533 90.3804 25.3731 -120.249 -139.218 -193.865 -76.6987 -133.868 -73.4082 -175.611 -141.525
internal_weight=3748 3528 1673 220 481 152 1192 332 68 149 1855 214 525 43 129 110 90 60 42 667 118 330 291 521 1564 146 234 195 400 200
internal_count=3748 3528 1673 220 481 152 1192 332 68 149 1855 214 525 43 129 110 90 60 42 667 118 330 291 521 1564 146 234 195 400 200
is_linear=0
shrinkage=0.05


Tree=17
num_leaves=31
num_cat=0
split_feature=16 12 10 0 16 16 0 15 0 0 16 15 16 10 22 0 16 10 15 18 0 15 10 0 21 0 15 10 19 0
split_gain=1.31483e+11 1.55384e+10 1.94907e+10 1.02618e+10 3.18879e+09 1.43737e+09 1.57321e+09 1.38347e+09 1.31265e+09 8.99818e+08 8.2352e+08 4.81177e+08 4.33576e+08 4.31764e+08 3.44076e+08 2.80889e+08 1.69612e+08 1.61916e+08 1.45624e+08 1.29206e+08 9.37375e+07 9.03112e+07 7.57694e+07 3.90908e+07 2.90563e+07 2.41347e+07 1.87807e+07 1.76219e+07 1.26868e+07 1.03679e+07
threshold=492526.50000000006 1.0000000180025095e-35 1150.0000000000002 223.50000000000003 85374.000000000015 558687.00000000012 194.50000000000003 275.50000000000006 227.50000000000003 251.50000000000003 106173.00000000001 1726.0000000000002 52460.500000000007 500.00000000000006 0.99825000000000008 196.50000000000003 72434.000000000015 250.00000000000003 594.50000000000011 617849.50000000012 82.500000000000014 148.50000000000003 1150.0000000000002 226.50000000000003 0.97775000000000012 270.50000000000006 3387.5000000000005 500.00000000000006 525885.50000000012 50.500000000000007
decision_type=2 2 2 2 2 2 2 2 2 2 2 2 2 2 2 2 2 2 2 2 2 2 2 2 2 2 2 2 2 2
left_child=1 11 7 5 8 -2 14 17 12 -5 15 22 -4 24 19 -6 -10 23 -15 -7 26 -19 27 -3 -9 -24 -13 -1 -22 -28
right_child=3 2 4 9 10 6 -8 13 16 -11 -12 20 -14 18 -16 -17 -18 21 -20 -21 28 -23 25 -25 -26 -27 29 -29 -30 -31
leaf_value=-195.21193537188404 1052.4420536747684 -140.76693767679149 177.12090685935249 757.19660993303569 490.48433322906499 1659.4282537286931 1167.789244249132 -56.247360778400918 31.04174636037726 343.19911164783298 776.27006952194949 -118.35339896462182 334.38739772372776 -2.5044404743915769 1382.7967667289404 342.34784692128505 166.79425945859967 -127.09200795491536 65.564775279141216 1529.6527630974265 -130.9831161745133 -81.04949751110351 -153.27494444916215 -187.56896748860677 -97.351121973991397 -176.98254525907373 -80.412978510271046 -182.68199907723121 -173.00829206194197 -46.423843837428741
leaf_weight=692 27 174 63 35 96 44 36 131 76 21 21 22 144 201 23 48 33 189 129 34 124 244 207 60 64 223 57 472 21 37
leaf_count=692 27 174 63 35 96 44 36 131 76 21 21 22 144 201 23 48 33 189 129 34 124 244 207 60 64 223 57 472 21 37
internal_value=0.403228 -73.5492 36.9433 1186.33 305.602 1385.88 1451.59 -71.4668 212.575 601.948 483.763 -173.201 286.524 -10.7513 1552.75 441.106 72.1411 -119.256 24.1044 1602.86 -110.268 -101.147 -183.505 -152.767 -69.7378 -165.57 -76.7672 -190.131 -137.07 -67.0343
internal_weight=3748 3528 1673 220 481 164 137 1192 316 56 165 1855 207 525 101 144 109 667 330 78 261 433 1594 234 195 430 116 1164 145 94
internal_count=3748 3528 1673 220 481 164 137 1192 316 56 165 1855 207 525 101 144 109 667 330 78 261 433 1594 234 195 430 116 1164 145 94
is_linear=0
shrinkage=0.05


Tree=18
num_leaves=31
num_cat=0
split_feature=16 12 10 7 16 2 0 10 0 17 9 0 16 0 23 0 7 9 16 17 23 2 5 0 10 2 0 0 10 5
split_gain=1.18664e+11 1.40234e+10 1.75903e+10 9.50375e+09 2.88194e+09 1.6203e+09 1.27173e+09 1.25912e+09 1.16525e+09 7.54581e+08 4.3454e+08 4.29587e+08 4.26415e+08 3.81397e+08 4.14036e+08 2.40256e+08 2.00225e+08 1.784e+08 1.64529e+08 1.54138e+08 1.43258e+08 1.27032e+08 1.1949e+08 1.00721e+08 7.45561e+07 4.39516e+07 3.36249e+07 2.39034e+07 1.59038e+07 1.54584e+07
threshold=492526.50000000006 1.0000000180025095e-35 1150.0000000000002 4.0450000000000008 86805.000000000015 -0.68301270189221952 227.50000000000003 500.00000000000006 251.50000000000003 106027.50000000001 1500000.0000000002 221.50000000000003 52460.500000000007 191.50000000000003 0.9990500000000001 185.50000000000003 4.8200000000000012 350000.00000000006 73194.500000000015 112009.00000000001 0.95495000000000008 -0.68301270189221952 24.150000000000002 88.500000000000014 1150.0000000000002 -0.68301270189221952 255.50000000000003 88.500000000000014 500.00000000000006 12.950000000000001
decision_type=2 2 2 2 2 2 2 2 2 2 2 2 2 2 2 2 2 2 2 2 2 2 2 2 2 2 2 2 2 2
left_child=1 10 7 8 6 13 12 17 20 15 24 19 -4 14 22 -6 -7 21 -8 -9 -2 -3 -5 29 28 -19 -13 -26 -1 -12
right_child=3 2 4 5 9 16 18 11 -10 -11 23 26 -14 -15 -16 -17 -18 25 -20 -21 -22 -23 -24 -25 27 -27 -28 -29 -30 -31
leaf_value=-185.45133980988078 672.61019042968746 -67.045510790299403 168.26486232091511 1604.8405706232245 481.23576841001159 978.5389604048296 30.322680490357534 0.37186297378708832 326.03915310814273 758.77788604736327 -87.44684851304541 -65.503109180673647 322.24960640099403 1271.4522481282554 1297.581259765625 340.06695073544984 1197.1276269531252 -123.67676042829243 161.06647561209545 70.87515657796699 849.16589898003485 -118.61351069503587 1462.1252308238636 -132.19448172299917 -144.96118452742294 -166.65008965500263 -121.23855020623458 -168.08642800564238 -173.54789886474612 -50.38924138704936
leaf_weight=692 20 245 63 44 81 22 77 226 21 20 53 94 157 24 20 48 20 119 35 118 27 233 22 131 222 119 38 225 472 60
leaf_count=692 20 245 63 44 81 22 77 226 21 20 53 94 157 24 20 48 20 119 35 118 27 233 22 131 222 119 38 225 472 60
internal_value=0.383066 -69.8717 35.0962 1127.01 290.322 1346.82 208.331 -67.8935 635.684 473.013 -164.541 -4.86775 278.154 1447.69 1496.88 428.708 1082.63 -109.793 71.1801 24.5561 774.036 -92.1822 1557.27 -102.359 -173.959 -145.163 -81.5482 -156.601 -180.625 -67.7702
internal_weight=3748 3528 1673 220 481 152 332 1192 68 149 1855 476 220 110 86 129 42 716 112 344 47 478 66 244 1611 238 132 447 1164 113
internal_count=3748 3528 1673 220 481 152 332 1192 68 149 1855 476 220 110 86 129 42 716 112 344 47 478 66 244 1611 238 132 447 1164 113
is_linear=0
shrinkage=0.05


Tree=19
num_leaves=31
num_cat=0
split_feature=16 12 10 7 16 2 10 0 0 17 9 0 17 0 23 0 19 22 9 16 16 0 23 0 10 2 0 0 10 5
split_gain=1.07094e+11 1.26561e+10 1.58753e+10 8.57714e+09 2.60393e+09 1.46232e+09 1.13635e+09 1.0675e+09 1.05163e+09 7.34441e+08 3.92173e+08 3.87702e+08 3.56805e+08 3.44211e+08 3.73667e+08 2.54869e+08 2.00426e+08 1.85171e+08 1.61006e+08 1.3912e+08 1.38396e+08 1.16435e+08 1.14975e+08 9.09004e+07 6.72869e+07 3.96663e+07 3.03464e+07 2.15729e+07 1.43532e+07 1.39512e+07
threshold=492526.50000000006 1.0000000180025095e-35 1150.0000000000002 4.0450000000000008 85374.000000000015 -0.68301270189221952 500.00000000000006 227.50000000000003 251.50000000000003 106027.50000000001 1500000.0000000002 221.50000000000003 47072.500000000007 191.50000000000003 0.9990500000000001 185.50000000000003 623045.50000000012 0.99825000000000008 350000.00000000006 109983.50000000001 72434.000000000015 223.50000000000003 0.98995000000000011 88.500000000000014 1150.0000000000002 -0.68301270189221952 255.50000000000003 88.500000000000014 500.00000000000006 12.950000000000001
decision_type=2 2 2 2 2 2 2 2 2 2 2 2 2 2 2 2 2 2 2 2 2 2 2 2 2 2 2 2 2 2
left_child=1 10 6 8 7 13 18 12 16 15 24 19 -4 14 22 -6 -2 -7 21 -8 -9 -3 -5 29 28 -20 -13 -26 -1 -12
right_child=3 2 4 5 9 17 11 20 -10 -11 23 26 -14 -15 -16 -17 -18 -19 25 -21 -22 -23 -24 -25 27 -27 -28 -29 -30 -31
leaf_value=-176.17876976762895 646.46888201678246 -73.762910514971722 81.308873973846445 1419.16197781033 450.97469315962365 918.38689453125016 -2.0713220991407124 27.973525514100729 309.73719711757843 720.83900230407721 -83.074504737134248 -62.227953693968189 282.7578501014919 1207.8796488444011 1232.7022143554689 315.25792356792249 855.30196899414068 1128.597782759233 -117.49292248637738 63.133743142369966 150.59932060819685 -131.66880482456142 1551.6973730468751 -125.58476282949667 -137.71312533541843 -158.3175841772256 -115.17662345484685 -159.68210671657988 -164.87050088138903 -47.869779391487441
leaf_weight=692 27 364 25 36 88 20 210 76 21 20 53 94 182 24 20 57 20 22 119 134 33 114 30 131 222 119 38 225 472 60
leaf_count=692 27 364 25 36 88 20 210 76 21 20 53 94 182 24 20 57 20 22 119 134 33 114 30 131 222 119 38 225 472 60
internal_value=0.363913 -66.3781 33.3414 1070.66 275.806 1279.48 -64.4988 191.742 603.9 436.802 -156.314 -4.62436 258.428 1375.31 1422.03 397.624 735.334 1028.5 -104.304 23.3283 65.0988 -87.5731 1479.41 -97.2407 -165.261 -137.905 -77.4708 -148.771 -171.593 -64.3817
internal_weight=3748 3528 1673 220 481 152 1192 316 68 165 1855 476 207 110 86 145 47 42 716 344 109 478 66 244 1611 238 132 447 1164 113
internal_count=3748 3528 1673 220 481 152 1192 316 68 165 1855 476 207 110 86 145 47 42 716 344 109 478 66 244 1611 238 132 447 1164 113
is_linear=0
shrinkage=0.05


Tree=20
num_leaves=31
num_cat=0
split_feature=15 15 2 0 10 7 2 17 10 0 0 15 17 17 0 23 0 19 0 15 17 0 15 9 10 15 15 19 10 10
split_gain=1.03203e+11 1.27404e+10 7.15963e+09 6.32846e+09 5.73568e+09 2.56802e+09 1.90278e+09 1.08291e+09 1.03168e+09 5.70871e+08 5.15966e+08 3.97985e+08 3.84931e+08 2.81998e+08 2.80809e+08 2.20728e+08 2.15554e+08 2.42048e+08 1.94483e+08 1.21412e+08 9.25588e+07 7.99467e+07 5.25453e+07 5.01699e+07 4.92207e+07 4.69062e+07 2.20459e+07 3.18568e+07 1.11972e+07 1.11066e+07
threshold=27969.000000000004 443.50000000000006 1.0000000180025095e-35 92.500000000000014 1150.0000000000002 4.455000000000001 1.0000000180025095e-35 85957.500000000015 1150.0000000000002 258.50000000000006 250.50000000000003 275.50000000000006 596381.50000000012 97527.000000000015 259.50000000000006 0.99675000000000014 187.50000000000003 609220.00000000012 216.50000000000003 49.500000000000007 48620.500000000007 196.50000000000003 4921.5000000000009 175000.00000000003 500.00000000000006 165.50000000000003 1992.0000000000002 341357.00000000006 500.00000000000006 700.00000000000011
decision_type=2 2 2 2 2 2 2 2 2 2 2 2 2 2 2 2 2 2 2 2 2 2 2 2 2 2 2 2 2 2
left_child=1 6 4 -2 13 18 8 10 11 -9 -6 19 15 23 20 -7 17 -14 -5 -1 -10 -15 26 -3 -13 29 -4 -28 -27 -8
right_child=3 2 22 5 7 12 25 9 14 -11 -12 24 16 21 -16 -17 -18 -19 -20 -21 -22 -23 -24 -25 -26 28 27 -29 -30 -31
leaf_value=-138.00994895161062 240.44169490814213 25.400917194507741 -128.87403066926083 961.01596781412763 251.77551504347062 1083.3661690848214 -166.24645685690982 419.47129185241084 60.49053518295289 137.32170738220216 -10.122732998075939 -60.851501785089944 1321.067740028783 78.680294797420515 -58.863339405675084 1281.8999128069197 1217.4087069424716 1523.8917928059898 759.72713521321612 -92.022014865712222 163.97127727092584 -25.003873542222109 -63.535842104519112 -50.034910567204157 -12.25131147952929 -157.00903541714538 -51.844178898845406 -111.36704802931402 -137.74849086366851 -155.11548028142198
leaf_weight=207 20 27 118 24 180 28 759 173 40 20 21 81 38 120 31 28 22 24 24 468 47 22 68 120 146 102 28 114 290 318
leaf_count=207 20 27 118 24 180 28 759 173 40 20 21 81 38 120 31 28 22 24 24 468 47 22 68 120 146 102 28 114 290 318
internal_value=3.96195 -60.3429 89.3374 1086.01 181.545 1175.97 -121.141 305.64 -68.677 390.233 224.413 -86.8648 1284.17 12.364 70.3518 1182.63 1351.87 1399.58 860.372 -106.125 116.394 62.6166 -102.668 -36.1794 -29.5932 -157.57 -112.902 -99.6301 -142.76 -162.96
internal_weight=3708 3500 1011 208 683 188 2489 394 1020 193 201 902 140 289 118 56 84 62 48 675 87 142 328 147 227 1469 260 142 392 1077
internal_count=3708 3500 1011 208 683 188 2489 394 1020 193 201 902 140 289 118 56 84 62 48 675 87 142 328 147 227 1469 260 142 392 1077
is_linear=0
shrinkage=0.05


Tree=21
num_leaves=31
num_cat=0
split_feature=16 12 10 7 16 10 2 17 0 4 0 2 5 10 17 2 2 0 17 16 10 0 16 10 17 0 5 10 0 0
split_gain=9.51605e+10 1.04109e+10 1.29847e+10 5.75453e+09 2.59068e+09 9.48121e+08 8.99169e+08 8.9523e+08 8.42594e+08 5.4118e+08 4.59826e+08 4.02915e+08 3.88031e+08 2.86111e+08 2.68467e+08 1.44378e+08 1.3998e+08 1.25077e+08 1.22803e+08 1.01512e+08 8.68801e+07 7.39579e+07 7.24455e+07 5.36974e+07 4.61515e+07 2.07598e+07 1.15834e+07 1.07661e+07 9.6631e+06 8.91939e+06
threshold=492526.50000000006 1.0000000180025095e-35 1150.0000000000002 4.0450000000000008 85374.000000000015 500.00000000000006 -0.68301270189221952 106027.50000000001 216.50000000000003 26.650000000000002 194.50000000000003 -0.68301270189221952 21.250000000000004 3500.0000000000005 47072.500000000007 -0.68301270189221952 -0.68301270189221952 251.50000000000003 618185.50000000012 116136.00000000001 350.00000000000006 82.500000000000014 31721.500000000004 1150.0000000000002 66503.000000000015 270.50000000000006 13.850000000000003 500.00000000000006 281.50000000000006 88.500000000000014
decision_type=2 2 2 2 2 2 2 2 2 2 2 2 2 2 2 2 2 2 2 2 2 2 2 2 2 2 2 2 2 2
left_child=1 13 5 9 8 15 10 16 14 -2 12 19 -5 23 -4 20 -6 -10 -14 -7 -3 26 -13 27 -17 -25 -15 -1 -23 -29
right_child=3 2 4 6 7 11 -8 -9 17 -11 -12 22 18 21 -16 24 -18 -19 -20 -21 -22 28 -24 25 -26 -27 -28 29 -30 -31
leaf_value=-158.83884978937999 479.15374949687242 -89.535578487230396 94.250875433560083 1450.95341796875 393.69722799549936 17.888684486587284 963.65354003906259 724.97555007934579 108.89008883086728 788.00672660495923 1027.49560546875 -83.139179439335081 1165.4596103766025 -71.071889121315706 259.91939042409263 -104.24321021710412 273.9819653049592 7.3814832687377931 1295.4656594669118 85.996222532465225 -36.613365847432718 -144.94202270507813 -27.06911657479159 -123.28541518100472 -142.43302294306395 -144.76345121739277 -36.20065362112863 -141.9287064401727 -107.81693034621907 -155.72454408511089
leaf_weight=689 37 230 29 26 115 142 39 20 71 23 21 91 39 55 156 236 31 53 34 89 117 21 157 215 119 236 42 228 106 241
leaf_count=689 37 230 29 26 115 142 39 20 71 23 21 91 39 55 156 236 31 53 34 89 117 21 157 215 119 236 42 228 106 241
internal_value=3.76386 -59.6962 31.1725 1014.78 251.939 -57.6203 1172.22 411.254 166.353 597.547 1240.01 -3.38551 1285.09 -141.79 233.95 -94.6266 368.278 65.5033 1226.01 44.1293 -71.6915 -88.8471 -47.6432 -149.161 -117.045 -134.524 -55.973 -154.861 -113.956 -149.018
internal_weight=3708 3489 1656 219 475 1181 159 166 309 60 120 479 99 1833 185 702 146 124 73 231 347 224 248 1609 355 451 97 1158 127 469
internal_count=3708 3489 1656 219 475 1181 159 166 309 60 120 479 99 1833 185 702 146 124 73 231 347 224 248 1609 355 451 97 1158 127 469
is_linear=0
shrinkage=0.05


Tree=22
num_leaves=31
num_cat=0
split_feature=16 15 12 7 15 12 9 17 11 2 17 4 19 0 5 16 19 9 17 0 9 15 15 2 4 0 15 11 20 8
split_gain=8.58824e+10 9.66432e+09 6.22921e+09 5.19346e+09 4.55009e+09 1.67342e+09 1.13853e+09 8.91782e+08 8.68381e+08 8.115e+08 6.37592e+08 4.88415e+08 4.33936e+08 4.14993e+08 3.50198e+08 2.99153e+08 2.37156e+08 1.61806e+08 1.10829e+08 8.63691e+07 6.97594e+07 6.17161e+07 3.61348e+07 3.46176e+07 2.20031e+07 1.77792e+07 1.5602e+07 1.40176e+07 1.31515e+07 8.3618e+06
threshold=492526.50000000006 443.50000000000006 1.0000000180025095e-35 4.0450000000000008 1726.0000000000002 1.0000000180025095e-35 175000.00000000003 106027.50000000001 375.00000000000006 -0.68301270189221952 47072.500000000007 26.650000000000002 82624.000000000015 194.50000000000003 21.250000000000004 33623.000000000007 84517.500000000015 450000.00000000006 618185.50000000012 229.50000000000003 350000.00000000006 12935.000000000002 136.50000000000003 0.25000000000000017 27.050000000000004 36.500000000000007 64.500000000000014 375.00000000000006 0.99245000000000017 14.65
decision_type=2 2 2 2 2 2 2 2 2 2 2 2 2 2 2 2 2 2 2 2 2 2 2 2 2 2 2 2 2 2
left_child=1 5 21 11 6 22 10 16 19 13 -4 -2 -8 14 -5 24 -6 -17 -16 20 -7 23 -1 28 -10 -25 -21 -24 -3 -23
right_child=3 2 4 9 7 8 12 -9 15 -11 -12 -13 -14 -15 18 17 -18 -19 -20 26 -22 29 27 25 -26 -27 -28 -29 -30 -31
leaf_value=-147.99532632538768 455.19606005694413 -170.44908142089844 57.159207105636597 1378.4057635967549 255.85472900390624 -69.709155510557295 -42.553956595132519 688.72677780151378 -84.969049858324468 915.47086557241585 271.52096696047437 748.60639436141309 76.144874588232398 976.12082054501479 1107.1866442558094 51.193832855306717 380.04231658650338 -34.750411410080766 1230.6923785041363 -141.99564757055165 -110.16687171013801 -69.841650009155273 -145.2482859126857 -68.668109156868681 -44.141313229185165 -104.58089148083573 -109.09717910498904 -125.26809811333118 -123.91060887896828 -31.19997954326017
leaf_weight=1056 37 20 54 26 60 257 129 20 66 39 97 23 191 21 39 196 107 76 34 98 182 28 122 44 66 159 57 313 63 28
leaf_count=1056 37 20 54 26 60 257 129 20 66 39 97 23 191 21 39 196 107 76 34 98 182 28 122 44 66 159 57 313 63 28
internal_value=3.57566 -56.7114 74.5744 964.039 164.542 -109.458 81.695 373.21 -59.3468 1113.61 194.862 567.67 28.2944 1178.01 1220.83 -2.79288 335.424 27.18 1164.71 -97.811 -86.4821 -98.5213 -143 -107.92 -64.5552 -96.7968 -129.898 -130.872 -135.125 -50.5208
internal_weight=3708 3489 1000 219 658 2489 471 187 998 159 151 60 320 120 99 404 167 272 73 594 439 342 1491 286 132 203 155 435 83 56
internal_count=3708 3489 1000 219 658 2489 471 187 998 159 151 60 320 120 99 404 167 272 73 594 439 342 1491 286 132 203 155 435 83 56
is_linear=0
shrinkage=0.05


Tree=23
num_leaves=31
num_cat=0
split_feature=16 15 12 7 10 12 15 10 0 16 0 4 5 10 18 17 0 0 0 0 15 16 10 16 0 13 5 0 15 13
split_gain=7.75089e+10 8.72205e+09 5.62186e+09 4.6871e+09 4.46451e+09 1.51026e+09 1.36075e+09 8.93492e+08 5.9478e+08 5.55521e+08 7.31856e+08 4.40795e+08 3.28593e+08 2.857e+08 2.08922e+08 1.47106e+08 1.3757e+08 1.03145e+08 7.79481e+07 7.0368e+07 5.56988e+07 3.79572e+07 3.34914e+07 3.05039e+07 2.89222e+07 2.75267e+07 1.3641e+07 1.26754e+07 1.00327e+07 5.29997e+06
threshold=492526.50000000006 443.50000000000006 1.0000000180025095e-35 4.0450000000000008 1150.0000000000002 1.0000000180025095e-35 3047.0000000000005 1150.0000000000002 227.50000000000003 558687.00000000012 194.50000000000003 26.650000000000002 21.250000000000004 500.00000000000006 93554.500000000015 596381.50000000012 229.50000000000003 221.50000000000003 229.50000000000003 196.50000000000003 12935.000000000002 37028.500000000007 1150.0000000000002 39616.500000000007 36.500000000000007 0.66985000000000017 13.750000000000002 270.50000000000006 77.500000000000014 0.87545000000000006
decision_type=2 2 2 2 2 2 2 2 2 2 2 2 2 2 2 2 2 2 2 2 2 2 2 2 2 2 2 2 2 2
left_child=1 5 20 11 14 22 8 13 -6 -5 12 -2 -11 18 21 -14 25 -15 -7 -16 24 -4 28 -18 -3 -9 -26 -24 -1 -22
right_child=3 2 4 9 6 7 -8 16 -10 10 -12 -13 15 17 19 -17 23 -19 -20 -21 29 -23 27 -25 26 -27 -28 -29 -30 -31
leaf_value=-144.01307127461629 432.43625841914002 -65.23470388027755 22.389258193969727 836.27338638305673 268.63295473752322 -82.157954756274037 573.91023718890017 184.86586712923918 74.92157793990944 1301.676550713901 874.76532277074352 711.17607528023109 987.53301391601565 -6.1180475173552349 68.222195039420839 1145.1407106633771 -20.282585906982423 -65.578109528079182 -123.40262628370715 -28.928875125538219 -31.471866251872139 -43.175981747217413 -111.1998457475142 54.460106916205831 -99.171199046543677 107.43593463102978 -123.21135799931545 -130.14128230371517 -134.31884826521755 -62.314626502990727
leaf_weight=676 37 44 27 24 286 439 34 22 46 29 29 23 20 163 122 57 20 132 155 22 26 121 143 43 140 24 102 231 441 30
leaf_count=676 37 44 27 24 286 439 34 22 46 29 29 23 20 163 122 57 20 132 155 22 26 121 143 43 140 24 102 231 441 30
internal_value=3.39688 -53.8758 70.8457 915.837 156.315 -103.985 272.646 -56.3794 241.793 1057.93 1097.34 539.287 1158.23 -72.9452 10.503 1104.2 78.7307 -32.7239 -92.9205 53.3797 -93.5952 -31.2148 -135.85 30.7323 -102.524 144.468 -109.304 -122.899 -140.186 -47.9948
internal_weight=3708 3489 1000 219 658 2489 366 998 332 159 135 60 106 889 292 77 109 295 594 144 342 148 1491 63 286 46 242 374 1117 56
internal_count=3708 3489 1000 219 658 2489 366 998 332 159 135 60 106 889 292 77 109 295 594 144 342 148 1491 63 286 46 242 374 1117 56
is_linear=0
shrinkage=0.05


Tree=24
num_leaves=31
num_cat=0
split_feature=16 15 12 7 10 12 15 10 0 16 0 4 5 10 18 0 0 8 0 0 15 10 15 19 0 22 7 10 8 10
split_gain=6.99518e+10 7.87165e+09 5.07373e+09 4.23011e+09 4.02922e+09 1.36301e+09 1.22807e+09 8.06377e+08 5.369e+08 5.01358e+08 6.605e+08 3.97817e+08 2.96555e+08 2.59071e+08 1.91554e+08 1.32456e+08 1.24157e+08 1.081e+08 7.51261e+07 5.97824e+07 5.02682e+07 3.48896e+07 3.0399e+07 2.77513e+07 2.61023e+07 2.50458e+07 1.24664e+07 1.20629e+07 7.5938e+06 7.3605e+06
threshold=492526.50000000006 443.50000000000006 1.0000000180025095e-35 4.0450000000000008 1150.0000000000002 1.0000000180025095e-35 3047.0000000000005 1150.0000000000002 225.50000000000003 558687.00000000012 194.50000000000003 26.650000000000002 21.250000000000004 350.00000000000006 100751.50000000001 231.50000000000003 229.50000000000003 9.3500000000000032 196.50000000000003 229.50000000000003 12935.000000000002 500.00000000000006 136.50000000000003 47430.000000000007 36.500000000000007 0.72330000000000017 0.77000000000000013 500.00000000000006 15.550000000000002 500.00000000000006
decision_type=2 2 2 2 2 2 2 2 2 2 2 2 2 2 2 2 2 2 2 2 2 2 2 2 2 2 2 2 2 2
left_child=1 5 20 11 14 22 8 13 -6 -5 12 -2 -11 19 21 -15 25 -14 -16 -7 24 -4 29 -18 -3 -9 -26 -24 -22 -1
right_child=3 2 4 9 6 7 -8 16 -10 10 -12 -13 17 15 18 -17 23 -19 -20 -21 28 -23 27 -25 26 -27 -28 -29 -30 -31
leaf_value=-137.54551095640682 410.81444829992347 -61.972968236966565 -42.102605107592211 794.45972283681238 255.8439667624487 -85.311800568463056 545.21472639196065 171.05838830566407 75.040844634175301 1236.5927279768321 831.02705541150317 675.6172618036685 1149.0073315429688 -19.300712891704634 74.217946505546578 -77.489880083145636 -17.734998139880954 1013.9008801912007 -27.482431403073402 -128.28325711763824 -61.540465301275255 5.9753902854590581 -131.26992897909196 52.660980388096405 -91.813638883724551 96.989344297136583 -114.54839732646943 -112.73511923890527 -24.334461251894634 -129.17835491559569
leaf_weight=563 37 44 108 24 284 365 34 25 48 29 29 23 20 265 104 155 21 57 22 104 32 58 122 42 114 21 128 313 24 493
leaf_count=563 37 44 108 24 284 365 34 25 48 29 29 23 20 265 104 155 21 57 22 104 32 58 122 42 114 21 128 313 24 493
internal_value=3.22704 -51.182 67.3034 870.045 148.499 -98.7856 259.014 -53.5604 229.704 1005.03 1042.47 512.322 1100.32 -69.298 9.97789 -40.7753 74.7941 1048.99 56.4607 -94.8407 -88.9154 -25.3043 -129.057 29.1957 -97.3978 137.244 -103.839 -117.933 -45.595 -133.639
internal_weight=3708 3489 1000 219 658 2489 366 998 332 159 135 60 106 889 292 420 109 77 126 469 342 166 1491 63 286 46 242 435 56 1056
internal_count=3708 3489 1000 219 658 2489 366 998 332 159 135 60 106 889 292 420 109 77 126 469 342 166 1491 63 286 46 242 435 56 1056
is_linear=0
shrinkage=0.05


Tree=25
num_leaves=31
num_cat=0
split_feature=17 2 10 0 17 10 0 0 0 12 10 0 17 0 9 0 2 23 19 19 9 0 19 4 0 0 17 2 10 10
split_gain=5.87946e+10 7.39782e+09 8.81697e+09 5.1325e+09 1.2842e+09 6.94016e+08 6.55684e+08 6.00598e+08 5.67123e+08 4.87683e+08 6.29018e+08 4.73076e+08 3.58523e+08 2.95905e+08 1.94428e+08 1.69429e+08 1.37134e+08 1.22892e+08 1.17967e+08 1.02475e+08 9.88975e+07 8.79938e+07 8.16675e+07 7.51473e+07 5.67506e+07 5.52071e+07 4.929e+07 4.78815e+07 4.38082e+07 3.73898e+07
threshold=498123.50000000006 -0.24999999999999994 1150.0000000000002 226.50000000000003 89491.000000000015 500.00000000000006 191.50000000000003 134.50000000000003 134.50000000000003 1.0000000180025095e-35 1150.0000000000002 251.50000000000003 51322.500000000007 251.50000000000003 1500000.0000000002 173.50000000000003 -0.68301270189221952 0.98955000000000015 584619.50000000012 448007.00000000006 350000.00000000006 196.50000000000003 645738.00000000012 29.450000000000003 191.50000000000003 82.500000000000014 93115.000000000015 -0.68301270189221952 350.00000000000006 1150.0000000000002
decision_type=2 2 2 2 2 2 2 2 2 2 2 2 2 2 2 2 2 2 2 2 2 2 2 2 2 2 2 2 2 2
left_child=1 2 5 6 12 20 7 19 -6 14 28 -5 23 -12 29 -10 24 -9 -19 -2 27 -14 -8 -4 -7 -16 -18 -1 -11 -3
right_child=3 9 4 11 8 16 22 17 15 10 13 -13 21 -15 25 -17 26 18 -20 -21 -22 -23 -24 -25 -26 -27 -28 -29 -30 -31
leaf_value=-42.237937802248041 786.3811034429641 -126.54211994320927 44.691850721075184 506.32686401367192 611.66104187011717 49.25236596179505 717.7584822944973 1018.00974382673 386.80182266235352 -122.44391743427998 232.70062203840777 201.07033927223901 232.81482435498921 15.157689087479206 -44.551753187666137 264.23302482992921 -48.111181312799459 1073.7766622792121 1237.6860305059524 937.62242940266935 -98.304858669387968 156.10275643292596 855.90814697265637 148.16540976592475 -7.5631285132023329 -93.853855183919279 6.85852080897281 -77.266295599206103 -72.867010133607053 -109.69036143298716
leaf_weight=243 21 1197 47 30 20 192 23 28 54 74 22 22 140 54 98 59 88 23 21 24 214 51 20 28 57 135 76 163 112 454
leaf_count=243 21 1197 47 30 20 192 23 28 54 74 22 22 140 54 98 59 88 23 21 24 214 51 20 28 57 135 76 163 112 454
internal_value=-0.319044 -48.2556 39.757 808.724 239.385 -37.3501 948.976 1010.34 366.243 -106.985 -43.0688 377.18 175.957 78.1306 -115.874 322.806 12.864 1099.9 1152.01 867.043 -70.7991 212.331 782.014 83.322 36.2464 -73.1173 -22.6374 -56.301 -92.5912 -121.908
internal_weight=3790 3578 1432 212 399 1033 160 117 133 2146 262 52 266 76 1884 113 413 72 44 45 620 191 43 75 249 233 164 406 186 1651
internal_count=3790 3578 1432 212 399 1033 160 117 133 2146 262 52 266 76 1884 113 413 72 44 45 620 191 43 75 249 233 164 406 186 1651
is_linear=0
shrinkage=0.05


Tree=26
num_leaves=31
num_cat=0
split_feature=15 15 12 10 0 0 12 16 10 2 10 18 23 23 15 10 0 23 2 5 2 0 15 2 21 18 15 0 18 9
split_gain=5.52083e+10 6.86608e+09 4.62084e+09 3.41047e+09 2.96003e+09 1.19626e+09 1.17872e+09 8.41454e+08 6.80025e+08 2.93562e+08 2.48415e+08 2.12955e+08 1.87975e+08 3.01864e+08 1.49948e+08 1.43256e+08 1.31395e+08 1.28049e+08 1.02192e+08 9.60725e+07 6.11579e+07 5.21118e+07 4.48192e+07 4.30511e+07 3.51882e+07 2.62601e+07 2.48263e+07 1.97895e+07 1.73621e+07 1.06125e+07
threshold=30125.000000000004 443.50000000000006 1.0000000180025095e-35 1150.0000000000002 104.50000000000001 191.50000000000003 1.0000000180025095e-35 85374.000000000015 1150.0000000000002 -0.5 500.00000000000006 562767.50000000012 0.99935000000000007 0.98955000000000015 40209.000000000007 500.00000000000006 229.50000000000003 0.97760000000000014 -0.68301270189221952 22.850000000000005 -0.68301270189221952 191.50000000000003 12935.000000000002 0.25000000000000017 0.99275000000000013 55214.500000000007 141.50000000000003 124.50000000000001 46725.500000000007 1500000.0000000002
decision_type=2 2 2 2 2 2 2 2 2 2 2 2 2 2 2 2 2 2 2 2 2 2 2 2 2 2 2 2 2 2
left_child=1 6 22 15 -2 12 26 9 10 -5 20 -9 13 17 -7 27 25 -6 -12 -15 -8 -17 23 24 -3 -10 -1 -4 -18 -25
right_child=4 2 3 7 5 14 8 11 16 -11 18 -13 -14 19 -16 21 28 -19 -20 -21 -22 -23 -24 29 -26 -27 -28 -29 -30 -31
leaf_value=-120.85118546919389 384.32429883480074 -178.08143218994144 -62.499011754989624 214.81941292115621 1023.415953125 621.17911376953134 -63.539220335792471 288.88586633616478 93.178278289794932 91.584350188760197 15.887740320425767 450.77173196543822 881.62963330078128 1210.224428013393 794.35389160156251 48.642290698384954 -7.0404432932535812 853.67751647949228 -45.652085809968412 1057.1026855468751 -94.959763534689401 -21.146611247584225 -35.395112614404589 -99.448884073893225 -102.88002275739399 165.64916754150391 -106.53664092287494 -18.177449981610785 46.316953019172921 -72.909411993844174
leaf_weight=1100 32 20 40 112 25 25 301 174 25 85 104 23 25 21 25 163 30 20 192 20 319 32 42 48 70 25 418 68 31 175
leaf_count=1100 32 20 40 112 25 25 301 174 25 85 104 23 25 21 25 163 30 20 192 20 319 32 42 48 70 25 418 68 31 175
internal_value=-0.303091 -44.5071 62.939 137.725 823.54 910.837 -88.9209 234.717 -47.5512 161.647 -61.7144 307.786 1002.31 1037.39 707.767 11.6039 69.327 947.977 -24.03 1135.53 -79.7056 37.1898 -83.8944 -90.4023 -119.591 129.414 -116.909 -34.5928 20.0756 -78.6219
internal_weight=3790 3597 1052 697 193 161 2545 394 1027 197 916 197 111 86 50 303 111 45 296 41 620 195 355 313 90 50 1518 108 61 223
internal_count=3790 3597 1052 697 193 161 2545 394 1027 197 916 197 111 86 50 303 111 45 296 41 620 195 355 313 90 50 1518 108 61 223
is_linear=0
shrinkage=0.05


Tree=27
num_leaves=31
num_cat=0
split_feature=15 15 12 10 0 0 12 16 10 0 10 16 5 19 7 10 0 2 10 7 15 2 7 21 18 10 0 18 15 10
split_gain=4.98255e+10 6.19664e+09 4.17031e+09 3.07795e+09 2.67143e+09 1.07963e+09 1.0638e+09 7.59412e+08 6.13722e+08 2.65116e+08 2.24195e+08 1.98969e+08 1.68144e+08 2.00375e+08 1.52672e+08 1.29289e+08 1.18584e+08 9.2228e+07 5.71196e+07 5.49073e+07 4.04493e+07 3.88536e+07 3.73959e+07 3.17574e+07 2.36998e+07 2.35133e+07 1.80837e+07 1.56693e+07 1.53767e+07 9.57781e+06
threshold=30125.000000000004 443.50000000000006 1.0000000180025095e-35 1150.0000000000002 104.50000000000001 191.50000000000003 1.0000000180025095e-35 85374.000000000015 1150.0000000000002 250.50000000000003 500.00000000000006 514273.50000000006 23.650000000000002 562478.50000000012 4.455000000000001 500.00000000000006 229.50000000000003 -0.68301270189221952 250.00000000000003 5.3350000000000009 12935.000000000002 0.25000000000000017 5.5950000000000006 0.99275000000000013 55214.500000000007 500.00000000000006 118.50000000000001 46725.500000000007 109.50000000000001 3500.0000000000005
decision_type=2 2 2 2 2 2 2 2 2 2 2 2 2 2 2 2 2 2 2 2 2 2 2 2 2 2 2 2 2 2
left_child=1 6 20 15 -2 12 25 9 10 -5 18 -9 13 22 -7 26 24 -12 -8 -17 21 23 -6 -3 -10 -1 -4 -18 -27 -23
right_child=4 2 3 7 5 14 8 11 16 -11 17 -13 -14 -15 -16 19 27 -19 -20 -21 -22 29 -24 -25 -26 28 -28 -29 -30 -31
leaf_value=-117.66746173933441 365.10808219909671 -169.17735931396487 -65.108531681183848 174.13046407209126 969.6981176757813 594.9326525006976 -94.183113964843756 271.09925870153006 88.519364486694343 -10.027732849121094 15.093353479642136 410.95398468017578 866.90090460526324 1087.7962720466383 770.9452104048296 4.1844152802374301 -6.6884209442138669 -43.36948152240366 -63.245452498874151 57.931678363496225 -33.625357128324964 -94.476441319783532 873.00797607421885 -97.736019810267862 157.36670758056641 -110.80765723159632 -19.881314774457511 44.001106163763232 -96.673696239315973 -69.263941204616003
leaf_weight=714 32 20 31 175 20 28 250 167 25 22 104 30 38 33 22 82 30 192 370 113 42 48 20 70 25 485 77 31 319 175
leaf_count=714 32 20 31 175 20 28 250 167 25 22 104 30 38 33 22 82 30 192 370 113 42 48 20 70 25 485 77 31 319 175
internal_value=-0.287938 -42.2817 59.792 130.839 782.363 865.295 -84.4748 222.981 -45.1736 153.565 -58.6286 292.397 952.195 996.595 672.378 11.0237 65.8607 -22.8285 -75.7203 35.3303 -79.6997 -85.8822 921.353 -113.612 122.943 -111.064 -32.8632 19.0718 -105.2 -74.6908
internal_weight=3790 3597 1052 697 193 161 2545 394 1027 197 916 197 111 73 50 303 111 296 620 195 355 313 40 90 50 1518 108 61 804 223
internal_count=3790 3597 1052 697 193 161 2545 394 1027 197 916 197 111 73 50 303 111 296 620 195 355 313 40 90 50 1518 108 61 804 223
is_linear=0
shrinkage=0.05


Tree=28
num_leaves=31
num_cat=0
split_feature=15 15 12 10 0 0 12 17 10 5 21 10 3 15 17 17 5 0 2 0 2 15 2 18 10 13 10 18 0 9
split_gain=4.49675e+10 5.59247e+09 3.7637e+09 2.77785e+09 2.41096e+09 9.79729e+08 9.60077e+08 6.89045e+08 5.53885e+08 2.64871e+08 2.29199e+08 2.02336e+08 1.8839e+08 1.4991e+08 1.16753e+08 1.08591e+08 1.18804e+08 1.07022e+08 8.32357e+07 7.03212e+07 5.55513e+07 3.65055e+07 3.50654e+07 3.07467e+07 2.21476e+07 2.1959e+07 2.12968e+07 1.41415e+07 1.08853e+07 8.64397e+06
threshold=30125.000000000004 443.50000000000006 1.0000000180025095e-35 1150.0000000000002 104.50000000000001 187.50000000000003 1.0000000180025095e-35 89491.000000000015 1150.0000000000002 16.650000000000002 0.91985000000000017 500.00000000000006 25.650000000000002 40209.000000000007 104267.50000000001 618185.50000000012 22.750000000000004 229.50000000000003 -0.68301270189221952 191.50000000000003 -0.68301270189221952 12935.000000000002 0.25000000000000017 80149.500000000015 500.00000000000006 0.6805500000000001 1150.0000000000002 46725.500000000007 270.50000000000006 1500000.0000000002
decision_type=2 2 2 2 2 2 2 2 2 2 2 2 2 2 2 2 2 2 2 2 2 2 2 2 2 2 2 2 2 2
left_child=1 6 21 14 -2 12 26 9 11 -5 -9 20 -6 -7 24 16 -14 25 -13 -16 -8 22 23 -3 -4 -10 -1 -19 -28 -24
right_child=4 2 3 7 5 13 8 10 17 -11 -12 18 15 -15 19 -17 -18 27 -20 -21 -22 -23 29 -25 -26 -27 28 -29 -30 -31
leaf_value=-108.84296156659089 346.85267801284795 -91.30845893411076 -31.220040873134579 44.496654813939877 1030.8592441406252 560.37352392578123 -56.526757499357792 209.64413936614994 149.93123986816406 181.2734713649223 331.32749556182722 14.338685918312805 905.80954006029208 726.15501627604169 64.021185121063226 941.91146599264709 746.78484395345049 -6.3540003331502284 -41.201007636388141 -20.550441072881224 -86.472451775051582 -31.944088994321369 -89.752619234720868 -159.3109100341797 7.3035111789117781 83.660529357910164 -83.714487530743639 41.801050303059242 -101.60017267641814 -65.800744734627855
leaf_weight=1153 32 68 108 44 25 25 301 60 25 181 109 104 23 30 106 34 24 30 192 32 319 42 48 22 57 25 135 31 230 175
leaf_count=1153 32 68 108 44 25 25 301 60 25 181 109 104 23 30 106 34 24 30 192 32 319 42 48 22 57 25 135 31 230 175
internal_value=-0.27354 -40.1676 56.8024 124.297 743.245 822.031 -80.2511 211.832 -42.9149 154.526 288.126 -55.6972 910.877 650.8 10.4725 873.845 824.605 62.5676 -21.6871 44.4104 -71.9343 -75.7147 -81.5881 -107.931 -17.9119 116.796 -105.511 18.1182 -94.9849 -70.9563
internal_weight=3790 3597 1052 697 193 161 2545 394 1027 225 169 916 106 55 303 81 47 111 296 138 620 355 313 90 165 50 1518 61 365 223
internal_count=3790 3597 1052 697 193 161 2545 394 1027 225 169 916 106 55 303 81 47 111 296 138 620 355 313 90 165 50 1518 61 365 223
is_linear=0
shrinkage=0.05


Tree=29
num_leaves=31
num_cat=0
split_feature=15 15 12 10 17 12 3 16 10 20 1 2 10 18 7 18 17 16 1 9 15 2 22 13 10 10 15 18 9 7
split_gain=4.05832e+10 5.0472e+09 3.39674e+09 2.50701e+09 2.19679e+09 8.6647e+08 6.52522e+08 6.24592e+08 4.99881e+08 2.66412e+08 2.97349e+08 2.43827e+08 1.82608e+08 1.75512e+08 1.49835e+08 1.05869e+08 9.33175e+07 7.58998e+07 6.66985e+07 5.189e+07 3.29462e+07 3.16465e+07 2.85965e+07 2.79431e+07 2.72696e+07 2.01086e+07 1.32411e+07 9.2535e+06 7.80119e+06 3.64038e+06
threshold=30125.000000000004 443.50000000000006 1.0000000180025095e-35 1150.0000000000002 474370.00000000006 1.0000000180025095e-35 23.750000000000004 85374.000000000015 1150.0000000000002 0.9980500000000001 1.0000000180025095e-35 -0.5 500.00000000000006 562767.50000000012 5.495000000000001 109549.50000000001 48620.500000000007 31721.500000000004 1.0000000180025095e-35 350000.00000000006 12935.000000000002 0.25000000000000017 0.99095000000000011 0.67420000000000013 500.00000000000006 500.00000000000006 109.50000000000001 46725.500000000007 1500000.0000000002 2.4450000000000007
decision_type=2 2 2 2 2 2 2 2 2 2 2 2 2 2 2 2 2 2 2 2 2 2 2 2 2 2 2 2 2 2
left_child=1 5 20 15 -2 25 -6 11 12 10 -8 -5 19 -9 -12 24 27 -14 -17 -7 21 22 -3 -18 -4 -1 -27 -10 -23 -22
right_child=4 2 3 7 6 8 9 13 16 -11 14 -13 17 -15 -16 18 23 -19 -20 -21 29 28 -24 -25 -26 26 -28 -29 -30 -31
leaf_value=-106.34193823891863 235.78499256480825 -155.26245086669923 -29.659039184782241 186.74606644766672 554.84086939493818 -56.447498624389233 725.92911314352978 247.035156657778 -4.1730061386570787 642.5912384033204 1001.8890285326087 74.434153226964611 -58.604215957830242 394.00137642570166 851.43875846216235 0.70402054268380876 142.28772289569562 -3.7337462008871682 78.208917266300759 -85.934913824462896 -44.382203349200161 -85.264987818400073 -87.469648437499998 72.000406837463387 8.995898360542105 -100.01611027353817 -86.900315833017004 38.284393949735737 -62.510706510646003 -14.908033828735354
leaf_weight=714 22 20 108 112 30 370 39 174 33 20 23 85 91 23 59 46 26 205 70 250 22 48 70 31 79 485 319 21 175 20
leaf_count=714 22 20 108 112 30 370 39 174 33 20 23 85 91 23 59 46 26 205 70 250 22 48 70 31 79 485 319 21 175 20
internal_value=-0.259863 -38.1592 53.9623 118.082 706.082 -76.2385 766.588 201.24 -40.7692 811.641 839.583 138.287 -52.9123 264.194 893.638 9.94887 59.4392 -20.6027 47.4742 -68.3376 -71.929 -77.5087 -102.535 104.061 -13.3289 -100.235 -94.8122 12.3382 -67.4085 -30.3469
internal_weight=3790 3597 1052 697 193 2545 171 394 1027 141 121 197 916 197 82 303 111 296 116 620 355 313 90 57 187 1518 804 54 223 42
internal_count=3790 3597 1052 697 193 2545 171 394 1027 141 121 197 916 197 82 303 111 296 116 620 355 313 90 57 187 1518 804 54 223 42
is_linear=0
shrinkage=0.05


Tree=30
num_leaves=31
num_cat=0
split_feature=16 2 10 3 18 15 10 16 12 15 5 8 10 7 4 4 8 15 16 13 9 17 10 2 2 16 15 13 7 16
split_gain=3.37271e+10 4.10814e+09 4.77131e+09 2.70584e+09 6.0953e+08 4.50346e+08 3.75494e+08 3.26732e+08 3.22931e+08 6.90395e+08 2.83249e+08 2.264e+08 1.58033e+08 1.55148e+08 1.40498e+08 1.69394e+08 1.19265e+08 9.13971e+07 9.01483e+07 7.13307e+07 5.85263e+07 3.67892e+07 3.43855e+07 3.43806e+07 3.12908e+07 3.10197e+07 2.10459e+07 1.96479e+07 1.45795e+07 1.22463e+07
threshold=492526.50000000006 -0.24999999999999994 1150.0000000000002 23.350000000000005 93554.500000000015 27969.000000000004 500.00000000000006 51936.500000000007 1.0000000180025095e-35 938.00000000000011 19.950000000000003 12.65 1150.0000000000002 5.6050000000000013 29.950000000000003 31.750000000000004 12.15 909.50000000000011 33901.500000000007 0.90580000000000005 350000.00000000006 46743.500000000007 350.00000000000006 -0.68301270189221952 -0.9330127018922193 449338.00000000006 55.500000000000007 0.91435000000000011 1.655 31721.500000000004
decision_type=2 2 2 2 2 2 2 2 2 2 2 2 2 2 2 2 2 2 2 2 2 2 2 2 2 2 2 2 2 2
left_child=1 2 6 5 7 -2 20 21 17 12 -5 19 22 -9 -12 -16 -17 26 29 -6 23 -4 -10 -1 -20 27 -3 -19 -14 -8
right_child=3 8 4 10 11 -7 18 13 9 -11 14 -13 28 -15 15 16 -18 25 24 -21 -22 -23 -24 -25 -26 -27 -28 -29 -30 -31
leaf_value=-32.606685727068005 191.45885211059027 -101.16002126840445 6.2889887301127123 894.05628051757822 182.93538710495523 466.03631985187531 -50.005632455702184 141.12858180933986 -100.74046269858756 250.81000995635986 626.39389511911497 420.92798457145693 -7.1630274668335918 228.94779510621902 830.40069986979165 758.63917248065661 604.07155396143605 -32.052383778645442 48.179136218962732 285.92744384765626 -78.363998340038549 79.151905948359797 -58.285722403620426 -62.392766330860276 11.334375689435735 -124.19952743530274 -89.569760286834935 -66.271790429743746 41.784742587188198 -15.295612063010536
leaf_weight=241 28 702 30 24 29 32 54 145 82 20 38 24 32 77 33 26 24 52 77 40 188 41 114 162 229 20 886 217 29 48
leaf_count=241 28 702 30 24 29 32 54 145 82 20 38 24 32 77 33 26 24 52 77 40 188 41 114 162 229 20 886 217 29 48
internal_value=-3.23394 -39.3523 27.8293 620.292 177.127 337.9 -29.8573 141.729 -82.5494 -32.1536 737.144 288.65 -54.1741 171.588 706.021 742.477 684.447 -89.9866 7.03645 242.641 -55.327 48.3648 -76.0474 -44.5802 20.6058 -64.1235 -94.6934 -59.6569 16.1072 -33.6715
internal_weight=3744 3539 1385 205 386 60 999 293 2154 277 145 93 257 222 121 83 50 1877 408 69 591 71 196 403 306 289 1588 269 61 102
internal_count=3744 3539 1385 205 386 60 999 293 2154 277 145 93 257 222 121 83 50 1877 408 69 591 71 196 403 306 289 1588 269 61 102
is_linear=0
shrinkage=0.05


Tree=31
num_leaves=31
num_cat=0
split_feature=16 12 10 3 18 0 0 0 15 5 16 23 8 23 15 15 0 10 0 0 0 0 0 19 0 15 20 10 0 4
split_gain=3.04387e+10 3.69922e+09 4.68917e+09 2.44202e+09 9.3643e+08 8.00557e+08 4.50788e+08 4.26224e+08 3.68286e+08 2.55632e+08 2.40397e+08 1.51186e+08 1.79118e+08 1.43659e+08 1.11032e+08 8.24859e+07 5.77009e+07 5.4238e+07 5.1819e+07 3.88297e+07 3.8748e+07 3.07902e+07 2.86752e+07 2.83489e+07 2.69383e+07 1.89939e+07 1.50001e+07 6.83227e+06 9.55235e+06 5.81125e+06
threshold=492526.50000000006 1.0000000180025095e-35 1150.0000000000002 23.350000000000005 93554.500000000015 156.50000000000003 227.50000000000003 243.50000000000003 275.50000000000006 19.950000000000003 51936.500000000007 0.97485000000000011 11.750000000000002 0.99825000000000008 722.00000000000011 909.50000000000011 134.50000000000003 500.00000000000006 173.50000000000003 260.50000000000006 132.50000000000003 235.50000000000003 255.50000000000003 404346.50000000006 278.50000000000006 55.500000000000007 0.86855000000000004 500.00000000000006 270.50000000000006 25.850000000000005
decision_type=2 2 2 2 2 2 2 2 2 2 2 2 2 2 2 2 2 2 2 2 2 2 2 2 2 2 2 2 2 2
left_child=1 15 8 7 6 -6 10 -2 17 -5 -4 -11 -13 -14 16 25 -10 21 -7 -8 -16 -3 -19 26 -25 -1 -17 -27 -29 -28
right_child=3 2 4 9 5 18 19 -9 14 11 -12 12 13 -15 20 23 -18 22 -20 -21 -22 -23 -24 24 -26 27 29 28 -30 -31
leaf_value=-96.102022489455351 426.07453181292561 -60.239061781274017 55.226270207818949 849.35347290039067 559.83970395042786 283.82847788810733 44.375430438097787 151.98051944815595 -40.71337819163864 584.83988138834638 174.87034132268172 795.98722503886506 547.52910723005027 718.03958984375004 11.151175891876221 -26.688671848297123 -2.0180212269658631 -21.599587049069612 191.27117080688478 -27.644076104958852 72.79760867632352 -87.344606875066901 -72.204818957560775 -135.37951404571535 -69.581520145961221 -92.616941677517374 -53.483883139292402 -76.91506836974925 -88.964402671913049 -78.424556811102505
leaf_weight=702 37 371 53 24 21 20 85 23 148 36 202 34 21 30 50 50 276 115 62 24 52 146 37 20 70 225 120 353 308 29
leaf_count=702 37 371 53 24 21 20 85 23 148 36 202 34 21 30 50 50 276 115 62 24 52 146 37 20 70 225 120 353 308 29
internal_value=-3.07225 -37.3847 16.9406 589.278 151.288 284.389 113.624 321.005 -35.5616 700.287 150.003 670.72 707.093 647.829 -4.25764 -85.4873 -15.5249 -60.1742 213.846 28.5179 42.5788 -67.8936 -33.918 -60.9173 -84.2033 -89.9587 -50.386 -85.0913 -82.5296 -58.3381
internal_weight=3744 3539 1662 205 467 103 364 60 1195 145 255 121 85 51 526 1877 424 669 82 109 102 517 152 289 90 1588 199 886 661 149
internal_count=3744 3539 1662 205 467 103 364 60 1195 145 255 121 85 51 526 1877 424 669 82 109 102 517 152 289 90 1588 199 886 661 149
is_linear=0
shrinkage=0.05


Tree=32
num_leaves=31
num_cat=0
split_feature=16 2 10 0 16 2 16 10 5 15 17 4 22 23 0 23 16 15 23 13 9 10 1 0 17 16 0 1 23 0
split_gain=2.74709e+10 3.34258e+09 3.87815e+09 1.89162e+09 5.02865e+08 3.54482e+08 3.17473e+08 3.12174e+08 2.64363e+08 2.12466e+08 2.03998e+08 1.70273e+08 1.59295e+08 1.17906e+08 1.13725e+08 8.33739e+07 7.54463e+07 7.52026e+07 1.55957e+08 5.50485e+07 4.96633e+07 4.74728e+07 6.97319e+07 5.32519e+07 3.36504e+07 2.86968e+07 2.73278e+07 2.37899e+07 1.47797e+07 1.25119e+07
threshold=492526.50000000006 -0.24999999999999994 1150.0000000000002 226.50000000000003 98433.500000000015 -0.68301270189221952 51936.500000000007 500.00000000000006 16.050000000000004 568.50000000000011 99306.000000000015 32.95000000000001 0.9990500000000001 0.97760000000000014 227.50000000000003 0.98995000000000011 33901.500000000007 20217.500000000004 0.99735000000000007 0.90580000000000005 350000.00000000006 700.00000000000011 -0.93301270189221908 268.50000000000006 48620.500000000007 46225.500000000007 185.50000000000003 -0.93301270189221908 0.92500000000000016 260.50000000000006
decision_type=2 2 2 2 2 2 2 2 2 2 2 2 2 2 2 2 2 2 2 2 2 2 2 2 2 2 2 2 2 2
left_child=1 2 7 5 6 11 24 20 -5 21 -6 13 -7 -2 -8 -15 -9 19 -19 27 25 29 23 -23 -4 -1 -18 -11 -21 -3
right_child=3 9 4 8 10 12 14 16 -10 17 -12 -13 -14 15 -16 -17 26 18 -20 28 -22 22 -24 -25 -26 -27 -28 -29 -30 -31
leaf_value=-49.194137909772593 803.01806935277489 -82.709244611339642 10.348662520743707 140.99644386985085 226.02674283981324 453.19459377288825 172.67277552604676 -30.525176463407629 392.16696624755861 28.805401667842162 429.5877787780762 579.02043631417416 635.36632904052738 600.04675467354912 56.285302303148356 726.06556902204238 30.562602488858712 119.16007897513254 -75.932095775604253 -85.075444172703953 -71.368110896171416 -10.132407895947846 -77.482818235739686 -102.49884170532228 79.254192543029788 -20.349698635482788 -0.39842152637717998 -31.937003605812791 -52.976436124024566 -93.322144277325961
leaf_weight=278 29 562 37 22 32 30 240 102 20 27 20 28 20 21 23 35 193 21 20 43 188 71 585 20 34 125 113 40 216 549
leaf_count=278 29 562 37 22 32 30 240 102 20 27 20 28 20 21 23 35 193 21 20 43 188 71 585 20 34 125 113 40 216 549
internal_value=-2.91863 -35.5154 25.084 559.814 159.684 636.911 137.166 -26.9238 260.601 -74.4802 304.319 685.959 526.063 721.186 162.494 678.809 6.71567 -39.8288 23.9932 -47.8555 -50.147 -81.5967 -71.1492 -30.4327 43.3457 -40.2474 19.1293 -7.45872 -58.3056 -87.9536
internal_weight=3744 3539 1385 205 386 163 334 999 42 2154 52 113 50 85 263 56 408 367 41 326 591 1787 676 91 71 403 306 67 259 1111
internal_count=3744 3539 1385 205 386 163 334 999 42 2154 52 113 50 85 263 56 408 367 41 326 591 1787 676 91 71 403 306 67 259 1111
is_linear=0
shrinkage=0.05


Tree=33
num_leaves=31
num_cat=0
split_feature=17 3 12 10 18 0 0 0 10 5 17 0 4 4 23 19 7 10 9 18 7 0 0 0 17 18 3 13 10 0
split_gain=2.37167e+10 3.37767e+09 3.03867e+09 3.85978e+09 8.30928e+08 7.70916e+08 6.44568e+08 3.94603e+08 3.01886e+08 2.36059e+08 1.9995e+08 1.11224e+08 1.07921e+08 1.83593e+08 1.27098e+08 8.651e+07 7.84255e+07 6.18097e+07 5.40497e+07 5.33797e+07 3.73527e+07 3.34844e+07 3.08524e+07 3.83885e+07 2.9145e+07 1.66e+07 1.56237e+07 1.32825e+07 1.02707e+07 1.00369e+07
threshold=474370.00000000006 23.350000000000005 1.0000000180025095e-35 1150.0000000000002 96049.000000000015 262.50000000000006 154.50000000000003 227.50000000000003 500.00000000000006 19.950000000000003 48620.500000000007 225.50000000000003 30.350000000000005 31.750000000000004 0.97485000000000011 600911.00000000012 5.6650000000000009 1750.0000000000002 350000.00000000006 109549.50000000001 5.1150000000000011 260.50000000000006 80.500000000000014 274.50000000000006 100338.00000000001 332248.00000000006 23.650000000000002 0.41985000000000006 500.00000000000006 270.50000000000006
decision_type=2 2 2 2 2 2 2 2 2 2 2 2 2 2 2 2 2 2 2 2 2 2 2 2 2 2 2 2 2 2
left_child=2 5 17 8 7 15 -6 10 18 -3 -5 19 14 -14 -11 -2 -15 28 20 -10 -4 -9 25 -24 -8 -19 -20 -13 -1 -30
right_child=1 9 3 4 6 -7 24 21 11 12 -12 27 13 16 -16 -17 -18 22 26 -21 -22 -23 23 -25 -26 -27 -28 -29 29 -31
leaf_value=-86.921610619555949 266.77549632145809 788.47617089843754 -55.322141282001269 12.147832053048271 520.4281999133882 -37.337463550567627 224.45515654028915 41.128546557315559 -1.7009050558983014 464.00532958984377 153.19016594789466 -12.209235419545855 769.58353627522786 658.07658952985503 636.34861529806392 398.41789779663088 533.47009131390121 -60.577085142869215 -89.056798773871535 38.635061049839805 -27.146608093133786 -25.664684542020161 -126.0385627746582 -65.93270326071773 152.02048179989771 -31.744248561064406 -62.317405986099793 -51.347851332028711 -72.222880514161588 -84.103795179248181
leaf_weight=696 26 25 276 28 21 20 41 86 235 20 245 28 24 28 23 24 23 104 90 126 205 24 30 232 21 96 139 96 343 369
leaf_count=696 26 25 276 28 21 20 41 86 235 20 245 28 24 28 23 24 23 104 90 126 205 24 30 232 21 96 139 96 343 369
internal_value=-2.7727 509.603 -33.6807 15.5345 137.59 225.021 281.013 106.509 -32.062 648.909 138.724 -1.65556 619.34 655.546 556.189 329.964 601.882 -77.3953 -52.8327 12.3776 -43.3139 26.5555 -61.526 -72.8151 199.921 -46.7373 -72.8263 -42.5101 -82.6024 -78.3803
internal_weight=3744 213 3531 1661 466 70 83 383 1195 143 273 485 118 75 43 50 51 1870 710 361 481 110 462 262 62 200 229 124 1408 712
internal_count=3744 213 3531 1661 466 70 83 383 1195 143 273 485 118 75 43 50 51 1870 710 361 481 110 462 262 62 200 229 124 1408 712
is_linear=0
shrinkage=0.05


Tree=34
num_leaves=31
num_cat=0
split_feature=15 15 2 10 15 5 2 3 3 10 3 5 17 0 10 15 2 10 0 0 0 0 16 15 9 15 15 20 0 10
split_gain=2.24975e+10 3.32854e+09 2.0965e+09 1.7178e+09 9.36996e+08 5.28618e+08 5.04944e+08 3.72524e+08 2.57518e+08 2.42594e+08 2.39656e+08 1.8864e+08 2.157e+08 1.6597e+08 7.7841e+07 7.15903e+07 5.4877e+07 5.6554e+07 4.33229e+07 3.49683e+07 3.04725e+07 2.86879e+07 2.81134e+07 2.46637e+07 1.89158e+07 1.49306e+07 1.20801e+07 1.02141e+07 7.44602e+06 5.76327e+06
threshold=38471.000000000007 443.50000000000006 1.0000000180025095e-35 1150.0000000000002 16427.500000000004 17.250000000000004 -0.5 23.550000000000004 24.950000000000003 500.00000000000006 26.350000000000005 23.150000000000002 618185.50000000012 237.50000000000003 1150.0000000000002 722.00000000000011 1.0000000180025095e-35 500.00000000000006 268.50000000000006 132.50000000000003 216.50000000000003 112.50000000000001 33901.500000000007 186.50000000000003 350000.00000000006 136.50000000000003 25.500000000000004 0.82725000000000015 198.50000000000003 500.00000000000006
decision_type=2 2 2 2 2 2 2 2 2 2 2 2 2 2 2 2 2 2 2 2 2 2 2 2 2 2 2 2 2 2
left_child=1 6 3 15 5 -5 9 -2 -9 23 -10 -12 -13 -6 22 21 17 26 -19 -17 -16 -3 -11 28 -25 -18 -8 -4 -1 -27
right_child=7 2 27 4 13 -7 16 8 10 14 11 12 -14 -15 20 19 25 18 -20 -21 -22 -23 -24 24 -26 29 -28 -29 -30 -31
leaf_value=-46.193694280029895 393.43461710611979 -59.701332267125451 -29.01170989326809 18.830821800231934 435.47743973270536 165.89956051610042 -91.414560178726447 761.18176128680898 465.86209803263347 -28.542601693073909 748.75087550481157 455.27373511904761 661.50232841968545 250.73208465576172 94.482815856933598 7.007202638898578 -80.034342298910659 -23.966272181394149 -93.983731783353377 65.873738912464333 28.503880665642875 -6.3667430295832936 13.094626891994478 -27.190439625144695 -70.198140055338555 -77.863203333294578 -65.24567457964632 -54.214103303546075 -66.083321014908719 -65.088546640428447
leaf_weight=77 21 30 46 78 31 282 63 26 30 60 24 21 32 20 35 49 1065 147 26 52 35 158 125 173 30 126 147 319 121 295
leaf_count=77 21 30 46 78 31 282 63 26 30 60 24 21 32 20 35 49 1065 147 26 52 35 158 125 173 30 126 147 319 121 295
internal_value=-2.63407 -28.0194 46.1126 96.7696 162.45 134.035 -59.2869 589.14 620.041 -21.5459 585.745 632.453 579.789 363.028 16.5836 3.36264 -72.5336 -55.6576 -34.4891 37.3147 61.4933 -14.8776 -0.409339 -45.7927 -33.5463 -76.8832 -73.0963 -51.0379 -58.3485 -68.9118
internal_weight=3744 3590 1065 700 411 360 2525 154 133 656 107 77 53 51 255 289 1869 383 173 101 70 188 185 401 203 1486 210 365 198 421
internal_count=3744 3590 1065 700 411 360 2525 154 133 656 107 77 53 51 255 289 1869 383 173 101 70 188 185 401 203 1486 210 365 198 421
is_linear=0
shrinkage=0.05


Tree=35
num_leaves=31
num_cat=0
split_feature=16 12 10 17 0 0 2 23 3 23 3 10 16 2 5 23 10 5 16 16 2 17 9 0 2 5 0 10 0 0
split_gain=2.19498e+10 2.79533e+09 3.68983e+09 8.50171e+08 9.31756e+08 7.71553e+08 3.6958e+08 2.57321e+08 3.08478e+08 2.07736e+08 2.72098e+08 2.06378e+08 1.43697e+08 1.10313e+08 9.05577e+07 7.9387e+07 5.09873e+07 4.21696e+07 4.21313e+07 3.60371e+07 3.34371e+07 3.17968e+07 2.9309e+07 1.77298e+07 9.72436e+06 9.36709e+06 9.36558e+06 4.8021e+06 3.53089e+06 1.18305e+06
threshold=532313.00000000012 1.0000000180025095e-35 1150.0000000000002 97527.000000000015 152.50000000000003 208.50000000000003 -0.68301270189221952 0.99935000000000007 24.950000000000003 0.9890500000000001 26.750000000000004 350.00000000000006 77793.000000000015 -0.68301270189221952 15.950000000000001 0.80595000000000006 1150.0000000000002 17.950000000000003 116136.00000000001 449338.00000000006 -0.68301270189221952 91649.000000000015 1500000.0000000002 78.500000000000014 -0.9330127018922193 16.350000000000005 88.500000000000014 350.00000000000006 88.500000000000014 270.50000000000006
decision_type=2 2 2 2 2 2 2 2 2 2 2 2 2 2 2 2 2 2 2 2 2 2 2 2 2 2 2 2 2 2
left_child=1 16 11 6 -5 7 15 8 -2 10 -10 20 -8 18 -6 -4 27 -7 -13 22 24 -15 26 -24 -3 -22 -18 29 -29 -1
right_child=5 2 3 4 14 17 12 -9 9 -11 -12 13 -14 21 -16 -17 19 -19 -20 -21 25 -23 23 -25 -26 -27 -28 28 -30 -31
